{"type":"LSTMTimeStep","options":{"inputSize":1,"inputRange":0,"hiddenLayers":[20],"outputSize":1,"decayRate":0.999,"smoothEps":1e-8,"regc":0.000001,"clipval":5,"maxPredictionLength":100,"dataFormatter":{"indexTable":{},"characterTable":{},"characters":[],"specialIndexes":[]}},"hiddenLayers":[{"inputMatrix":{"rows":20,"columns":1,"weights":[12.456646919250488,-12.349772453308105,-12.170733451843262,-12.332958221435547,-12.312394142150879,12.432795524597168,-12.346802711486816,-0.00599330710247159,-12.42959976196289,1.9473109245300293,0.22891990840435028,12.459217071533203,12.399161338806152,12.455147743225098,0.29652008414268494,-12.347596168518066,12.280214309692383,-12.421236991882324,12.461915016174316,-0.0228505227714777]},"inputHidden":{"rows":20,"columns":20,"weights":[9.673439025878906,11.902137756347656,0.7365447282791138,-11.563660621643066,7.151294708251953,0.2223745584487915,0.68546462059021,11.649507522583008,0.07600009441375732,0.024240927770733833,0.3948008418083191,11.807356834411621,-0.03170175105333328,11.577327728271484,11.856891632080078,11.75938606262207,-0.01621541567146778,-0.03534911572933197,10.475954055786133,10.472838401794434,-7.60474157333374,-11.144405364990234,-0.44434666633605957,10.645978927612305,-4.974673748016357,-0.08657479286193848,-0.5354617238044739,-10.840508460998535,-0.00306923920288682,0.032599207013845444,-0.21538278460502625,-11.111350059509277,0.02961534447968006,-10.492645263671875,-11.174064636230469,-10.853960037231445,-0.013097764924168587,0.046900417655706406,-8.54831600189209,-8.668330192565918,-0.1978241503238678,-0.42051395773887634,-0.05711255967617035,0.3585359454154968,-0.1469404548406601,-0.004513675346970558,0.04049765318632126,-0.3976232707500458,0.06401655822992325,0.010598291642963886,0.060288503766059875,-0.4226727783679962,0.04316917434334755,-0.4508014917373657,-0.5061114430427551,-0.3935682475566864,-0.024071188643574715,-0.0768321305513382,-0.1604005992412567,-0.19250839948654175,-6.890538692474365,-10.80317497253418,-0.4841183125972748,10.154671669006348,-4.476687908172607,-0.17613093554973602,-0.41825801134109497,-10.371155738830566,-0.0019838169682770967,-0.028743300586938858,-0.2550947666168213,-10.858624458312988,0.02157950960099697,-9.987576484680176,-10.896065711975098,-10.559884071350098,0.024926068261265755,-0.02693776972591877,-7.91202974319458,-8.05681037902832,-0.8248534798622131,-2.123291015625,-0.0911414697766304,1.768687129020691,-0.4901992082595825,0.05373404175043106,0.028405167162418365,-1.8973865509033203,0.015377401374280453,0.0775870829820633,-0.08186931163072586,-2.100193977355957,-0.002881028689444065,-1.636160135269165,-2.2448477745056152,-1.844151496887207,0.06313548237085342,0.061843473464250565,-1.004309892654419,-0.9727729558944702,11.764829635620117,12.272873878479004,1.8287914991378784,-12.234853744506836,10.626275062561035,0.5306172966957092,1.760123610496521,12.195284843444824,-0.07511771470308304,-0.09346150606870651,1.0991013050079346,12.29643440246582,-0.053435150533914566,12.202035903930664,12.343743324279785,12.219104766845703,0.07605275511741638,0.013459565117955208,11.886502265930176,11.888148307800293,-2.2141623497009277,-5.489201068878174,-0.15410390496253967,4.548343658447266,-1.4082096815109253,-0.043561939150094986,-0.16676390171051025,-4.813033103942871,-0.07076138257980347,0.03786337375640869,0.0019106623949483037,-5.538663387298584,0.06990097463130951,-4.470263957977295,-5.500242710113525,-5.073774337768555,-0.07000948488712311,0.024632932618260384,-2.8707878589630127,-2.7908105850219727,-6.6521759033203125,-2.451059103012085,-12.419098854064941,3.013792037963867,-11.864266395568848,-12.348236083984375,-12.339424133300781,-2.8544163703918457,-1.1869221925735474,11.640181541442871,-12.4376859664917,-2.505852699279785,-3.8632328510284424,-3.2320873737335205,-2.3986077308654785,-2.7147939205169678,-1.2157331705093384,4.89430046081543,-5.282537937164307,-5.611130714416504,-6.584157466888428,-10.541705131530762,-0.3329572379589081,9.93861198425293,-4.21809196472168,-0.142435222864151,-0.4535122215747833,-10.003179550170898,0.06916878372430801,-0.024050774052739143,-0.3096160292625427,-10.515665054321289,-0.02591836452484131,-9.63323974609375,-10.566510200500488,-10.278767585754395,0.041669074445962906,-0.04065709933638573,-7.608409404754639,-7.671003341674805,12.444567680358887,12.362146377563477,9.3698148727417,-12.465869903564453,12.30514907836914,4.276540756225586,9.263978004455566,12.355537414550781,-0.02604023367166519,-0.3785633146762848,7.074456214904785,12.336864471435547,0.08849123120307922,12.374011039733887,12.407787322998047,12.472461700439453,-0.06426674872636795,-0.06116915121674538,12.462645530700684,12.391044616699219,12.414642333984375,7.759652614593506,12.440773963928223,-9.829370498657227,12.381056785583496,12.28850269317627,12.454286575317383,9.112016677856445,0.41748708486557007,-7.994626522064209,12.328272819519043,7.934201240539551,1.2828805446624756,10.13901138305664,7.83651065826416,8.824676513671875,0.3061964511871338,-1.65851628780365,12.375341415405273,12.431373596191406,9.408604621887207,11.824678421020508,0.724857747554779,-11.538962364196777,6.917697906494141,0.2273952215909958,0.6747764348983765,11.666841506958008,0.02765173651278019,-0.056302186101675034,0.47400474548339844,11.83771800994873,0.0349658764898777,11.53041934967041,11.855945587158203,11.65307331085205,0.02323446236550808,-0.06300894170999527,10.290006637573242,10.245776176452637,1.3215502500534058,3.5959877967834473,0.05886397138237953,-2.979228973388672,0.7472817301750183,0.05468805134296417,0.011200789362192154,3.0617876052856445,-0.05843530222773552,-0.01667090132832527,0.023705197498202324,3.568559169769287,-0.0019880030304193497,2.854353427886963,3.597493886947632,3.183565855026245,0.03319672867655754,0.0032412935979664326,1.6520863771438599,1.698789358139038,11.806272506713867,12.267134666442871,1.6713544130325317,-12.303338050842285,10.674153327941895,0.5661787390708923,1.8034254312515259,12.213455200195312,-0.0359276682138443,-0.00952833890914917,1.0820907354354858,12.243206977844238,-0.02512996271252632,12.225550651550293,12.25343132019043,12.338235855102539,0.0012313342886045575,-0.007430415600538254,11.98686695098877,11.95549488067627,12.366291046142578,12.466913223266602,12.27773666381836,-12.322772979736328,12.455390930175781,11.22275447845459,12.265728950500488,12.443856239318848,-0.006358018610626459,-1.826641321182251,11.938947677612305,12.460132598876953,0.26081228256225586,12.433846473693848,12.4594087600708,12.332897186279297,0.04226602986454964,-0.2664138674736023,12.391982078552246,12.350034713745117,-11.248428344726562,-12.129374504089355,-1.2592661380767822,12.076261520385742,-9.540806770324707,-0.457550972700119,-1.3270471096038818,-12.06812858581543,-0.07655970752239227,-0.02883407659828663,-0.8125561475753784,-12.258599281311035,-0.008472505025565624,-12.133752822875977,-12.151494026184082,-12.130558967590332,-0.012277910485863686,0.06952211260795593,-11.546310424804688,-11.587695121765137,0.4294537305831909,1.0294491052627563,0.08671647310256958,-0.8103253841400146,0.2747052311897278,-0.0033200341276824474,0.0509977862238884,0.8267560005187988,-0.016060026362538338,-0.013959955424070358,-0.04588432237505913,0.986370325088501,-0.07406803220510483,0.8220842480659485,1.0331971645355225,0.8203883171081543,-0.04672311618924141,0.04151500388979912,0.4292031526565552,0.39791399240493774,-11.832596778869629,-12.370080947875977,-1.9006752967834473,12.246721267700195,-10.894845962524414,-0.6435113549232483,-1.9014363288879395,-12.269116401672363,-0.008010786026716232,0.0586656853556633,-1.1994612216949463,-12.254294395446777,0.06717859208583832,-12.174051284790039,-12.383316993713379,-12.283610343933105,-0.01384920347481966,-0.05349726229906082,-12.051060676574707,-12.083450317382812,3.236513614654541,7.263402938842773,0.08792795985937119,-6.19992208480835,1.9399577379226685,-0.0031060928013175726,0.23987628519535065,6.56169319152832,0.023873984813690186,0.042036402970552444,0.13250693678855896,7.240927696228027,0.015089360065758228,6.02112340927124,7.320429801940918,6.683960914611816,-0.0744301825761795,0.03210622817277908,3.8850631713867188,3.97329044342041,-1.1308362483978271,-0.4887270927429199,-12.393729209899902,0.5609258413314819,-2.1971161365509033,-12.359416007995605,-12.425296783447266,-0.45223695039749146,-5.152916431427002,12.31009578704834,-12.439284324645996,-0.4526025354862213,-10.71249008178711,-0.5224782824516296,-0.4371110200881958,-0.49275219440460205,-5.348189353942871,11.194464683532715,-0.9650371670722961,-1.0914491415023804]},"inputBias":{"rows":20,"columns":1,"weights":[0.3847159147262573,-0.9540879726409912,-0.001861683209426701,-0.11173103004693985,-0.011622441932559013,0.432583749294281,-0.025221839547157288,-12.401123046875,-0.07984927296638489,4.626819133758545,24.320552825927734,1.3175806999206543,0.024456685408949852,0.6223456859588623,12.391544342041016,-2.0340335369110107,0.002856406383216381,-0.5758728981018066,0.12531666457653046,-12.401165008544922]},"forgetMatrix":{"rows":20,"columns":1,"weights":[0.3085453510284424,-0.5126034021377563,-12.405637741088867,-5.615045547485352,-6.827159404754639,12.389944076538086,-12.405142784118652,-12.33604621887207,-0.16408482193946838,12.372241973876953,12.47795295715332,12.456555366516113,0.17070281505584717,12.339432716369629,12.454227447509766,-7.078369617462158,0.26625382900238037,0.06811025738716125,2.4432642459869385,0.004317061509937048]},"forgetHidden":{"rows":20,"columns":20,"weights":[12.323317527770996,12.324275016784668,12.331680297851562,-12.357932090759277,12.35503101348877,11.104209899902344,12.254070281982422,12.356346130371094,0.09571599215269089,-1.709088683128357,11.913734436035156,12.407880783081055,0.2247268408536911,12.334714889526367,12.383768081665039,12.372613906860352,0.1299494206905365,-0.29428908228874207,12.449535369873047,12.437843322753906,-12.44101619720459,-12.360952377319336,-11.993349075317383,12.326098442077637,-12.388554573059082,-9.187076568603516,-11.9456787109375,-12.459982872009277,-0.11328864842653275,1.0696254968643188,-11.054619789123535,-12.373476028442383,-0.05680050328373909,-12.325827598571777,-12.3385009765625,-12.409488677978516,0.01848513074219227,0.16516055166721344,-12.346550941467285,-12.324300765991211,-4.955743789672852,-9.333321571350098,-0.3286210000514984,8.406059265136719,-2.972524881362915,-0.12044349312782288,-0.23382383584976196,-8.664859771728516,-0.05139072239398956,-0.025532739236950874,-0.2123813033103943,-9.355536460876465,-0.03599001094698906,-8.095417022705078,-9.318277359008789,-8.839723587036133,-0.013921011239290237,0.06325185298919678,-5.815947532653809,-5.866118907928467,-12.36934757232666,-12.46446704864502,-4.665574550628662,12.340991020202637,-12.215218544006348,-1.6103622913360596,-4.646223068237305,-12.427567481994629,-0.06445150822401047,0.14155840873718262,-2.8369240760803223,-12.438380241394043,-0.01114868838340044,-12.453055381774902,-12.334071159362793,-12.350098609924316,-0.05310540273785591,0.01247839443385601,-12.386453628540039,-12.351548194885254,-12.225138664245605,-12.35542106628418,-3.812891721725464,12.406258583068848,-12.087417602539062,-1.3426166772842407,-3.8468570709228516,-12.369030952453613,0.0042642164044082165,0.07679705321788788,-2.4591615200042725,-12.449788093566895,-0.043093468993902206,-12.394501686096191,-12.397836685180664,-12.371777534484863,0.06098489463329315,-0.004208727739751339,-12.324065208435059,-12.342546463012695,2.568441390991211,6.0955729484558105,0.14446675777435303,-5.0688157081604,1.4544929265975952,0.09965693950653076,0.1535002887248993,5.389825344085693,-0.07547610253095627,0.0663859099149704,0.1095261424779892,6.1089324951171875,0.03373923897743225,4.858724594116211,6.112658500671387,5.517353057861328,0.020267119631171227,-0.05134255439043045,3.1984879970550537,3.2712864875793457,-11.281632423400879,-12.169792175292969,-1.2281783819198608,12.068853378295898,-9.516369819641113,-0.4110566973686218,-1.286583662033081,-12.204549789428711,0.011514803394675255,0.08358264714479446,-0.8403254151344299,-12.267863273620605,-0.007772344630211592,-12.05248737335205,-12.261481285095215,-12.098572731018066,-0.02249753102660179,0.07721654325723648,-11.614517211914062,-11.550772666931152,-8.389491081237793,-11.451319694519043,-0.6357074975967407,11.077994346618652,-5.813748836517334,-0.24942781031131744,-0.544389545917511,-11.209240913391113,0.04811679944396019,-0.014432337135076523,-0.28051260113716125,-11.48598861694336,-0.006758552044630051,-10.912728309631348,-11.419918060302734,-11.196267127990723,0.023829588666558266,-0.07073935866355896,-9.31804084777832,-9.310041427612305,-0.008749759756028652,-0.019818492233753204,0.01883988082408905,-0.028935465961694717,0.06252098083496094,-0.03689311444759369,-0.023804089054465294,-0.07068468630313873,0.06812287867069244,0.014978756196796894,-0.015573163516819477,0.04325398430228233,0.005308257415890694,0.057861004024744034,0.03516649454832077,-0.0021989436354488134,0.04292725771665573,-0.007799352053552866,0.029859574511647224,0.0368851013481617,4.074592113494873,8.38969898223877,0.16561725735664368,-7.350857734680176,2.3809287548065186,0.06939222663640976,0.17664271593093872,7.631065845489502,-0.014815051108598709,-0.055290043354034424,0.20953254401683807,8.271904945373535,0.024266857653856277,7.003478527069092,8.373408317565918,7.716865062713623,-0.01894950680434704,0.054744552820920944,4.8737945556640625,4.894149303436279,3.043113946914673,7.001180171966553,0.1242714449763298,-5.932126998901367,1.8583704233169556,0.0851302221417427,0.09981018304824829,6.244706630706787,-0.046022508293390274,-0.03530168905854225,0.09116002917289734,6.9506402015686035,-0.03483535721898079,5.75244140625,7.1028947830200195,6.451704025268555,-0.06910379976034164,0.0605962909758091,3.8089120388031006,4.01106071472168,11.361722946166992,12.231879234313965,1.5091155767440796,-12.207505226135254,10.062880516052246,0.5158436298370361,1.3649840354919434,12.209989547729492,-0.06625150889158249,-0.09128178656101227,0.8632760047912598,12.224656105041504,-0.015138663351535797,12.164942741394043,12.234395980834961,12.125738143920898,0.026166658848524094,0.04465941712260246,11.75020980834961,11.707660675048828,12.336496353149414,0.02655847556889057,0.032650139182806015,-0.015234960243105888,0.038990650326013565,12.417922019958496,0.07087727636098862,-0.04979492351412773,-0.03146151453256607,-12.409113883972168,12.369152069091797,12.446050643920898,12.373919486999512,12.348421096801758,12.415987014770508,-0.02674858272075653,12.437175750732422,0.006586178671568632,12.3392915725708,-0.03788980096578598,6.886302947998047,10.77754020690918,0.3864823877811432,-10.167572021484375,4.464324474334717,0.07956867665052414,0.474280446767807,10.292567253112793,0.009909852407872677,0.027340847998857498,0.2940414845943451,10.794756889343262,0.03760496526956558,10.000212669372559,10.769774436950684,10.479568481445312,-0.0695679783821106,-0.04971761256456375,7.937596797943115,7.860624313354492,9.945343017578125,11.997014045715332,0.7355888485908508,-11.692083358764648,7.465400218963623,0.19872158765792847,0.823228120803833,11.825546264648438,0.07685332000255585,-0.09723801165819168,0.49721822142601013,11.884513854980469,-0.05678292363882065,11.70322036743164,11.908321380615234,11.867948532104492,0.036653414368629456,-0.07542247325181961,10.569742202758789,10.600933074951172,-12.31827163696289,-12.356802940368652,-3.871572971343994,12.31492805480957,-11.991549491882324,-1.3304417133331299,-3.7893478870391846,-12.41434097290039,-0.07496797293424606,0.09541766345500946,-2.430807113647461,-12.314960479736328,-0.08254165947437286,-12.433300018310547,-12.445279121398926,-12.440677642822266,-0.023275505751371384,0.01902388222515583,-12.385501861572266,-12.291272163391113,12.343233108520508,-0.0598272979259491,0.06285448372364044,-0.07834340631961823,0.07562676072120667,12.480236053466797,0.012876216322183609,0.03828539326786995,-0.07552667707204819,-12.444655418395996,12.371562004089355,12.42319393157959,12.456829071044922,12.340566635131836,12.462185859680176,0.05701570585370064,12.452995300292969,-0.07656656205654144,12.375738143920898,-0.025428107008337975,0.021131979301571846,0.005983938928693533,0.014555461704730988,-0.06080617755651474,0.0033738240599632263,-0.0711357519030571,-0.06524152308702469,0.058451611548662186,0.06830117851495743,-0.0010176232317462564,0.06329966336488724,-0.04569157212972641,0.007475010119378567,-0.03531758487224579,-0.028438521549105644,0.029129698872566223,0.00003185551395290531,0.010159313678741455,-0.04500257596373558,-0.017044173553586006,12.362189292907715,12.424766540527344,8.006209373474121,-12.34488296508789,12.28750991821289,3.1104753017425537,7.947255611419678,12.332101821899414,-0.002319668885320425,-0.20012609660625458,5.249113082885742,12.455643653869629,-0.04625815525650978,12.461209297180176,12.424753189086914,12.40333080291748,0.02249770052731037,-0.09975381195545197,12.422624588012695,12.452075004577637,-9.638041496276855,-3.5297672748565674,-12.461871147155762,4.4319658279418945,-12.376274108886719,-12.367338180541992,-12.363959312438965,-4.182161331176758,-0.8653695583343506,11.022090911865234,-12.383445739746094,-3.5579638481140137,-2.9484362602233887,-4.629340648651123,-3.570540189743042,-4.047418594360352,-0.9328664541244507,3.794527530670166,-7.6985931396484375,-8.045378684997559]},"forgetBias":{"rows":20,"columns":1,"weights":[0,0,0,0,0,0,0,0,0,0,0,0,0,0,0,0,0,0,0,0]},"outputMatrix":{"rows":20,"columns":1,"weights":[0.5320498943328857,-1.833522081375122,-0.2270256131887436,-1.8610633611679077,-0.009408502839505672,0.06364969909191132,-0.08945588022470474,0.00996060948818922,-12.45016098022461,12.43520736694336,0.3720802366733551,12.477874755859375,12.337296485900879,12.474617958068848,12.465680122375488,-0.025055909529328346,12.508625030517578,-12.447203636169434,-3.911139965057373,-2.1724963188171387]},"outputHidden":{"rows":20,"columns":20,"weights":[1.763279676437378,0.6217265129089355,12.475313186645508,-0.9049162268638611,3.207796096801758,12.403562545776367,12.325396537780762,0.7618662714958191,3.7042722702026367,-12.372756958007812,12.412712097167969,0.7445362210273743,9.192205429077148,0.917297899723053,0.7065919637680054,0.758666455745697,3.7462737560272217,-10.194640159606934,1.4031575918197632,1.4842424392700195,-12.377876281738281,-12.33059024810791,-9.393896102905273,12.337088584899902,-12.435479164123535,-4.229580402374268,-9.37870979309082,-12.46606731414795,-0.08396346122026443,0.3212215006351471,-7.0308451652526855,-12.45164966583252,-0.10314655303955078,-12.391441345214844,-12.400099754333496,-12.348711967468262,0.006978628691285849,0.015673862770199776,-12.3832368850708,-12.365804672241211,-12.330248832702637,-12.386384010314941,-12.300546646118164,12.352349281311035,-12.3383207321167,-11.737297058105469,-12.336268424987793,-12.458908081054688,-0.1821059286594391,2.722979784011841,-12.266256332397461,-12.325355529785156,-0.4398719072341919,-12.351327896118164,-12.372817993164062,-12.43818187713623,-0.1653086096048355,0.5488108992576599,-12.364555358886719,-12.36266803741455,-12.449304580688477,-12.425278663635254,-9.46765422821045,12.449798583984375,-12.384658813476562,-4.30772066116333,-9.459599494934082,-12.401257514953613,0.05839371308684349,0.3730106055736542,-7.1475067138671875,-12.393007278442383,-0.0626128762960434,-12.416061401367188,-12.411500930786133,-12.46910285949707,0.052923351526260376,0.08549506962299347,-12.432476997375488,-12.452244758605957,-1.0108588933944702,-0.3773481845855713,-12.323386192321777,0.5235375165939331,-1.9938145875930786,-12.460224151611328,-12.376052856445312,-0.49918225407600403,-5.922102928161621,12.32358455657959,-12.382615089416504,-0.4466315805912018,-11.069302558898926,-0.5001588463783264,-0.370319664478302,-0.44012653827667236,-6.017684459686279,11.554381370544434,-0.8242879509925842,-0.947040319442749,12.343449592590332,12.419245719909668,12.317111015319824,-12.421796798706055,12.44690990447998,12.234280586242676,12.325427055358887,12.376738548278809,0.17041723430156708,-5.51697301864624,12.341334342956543,12.444366455078125,0.7336302399635315,12.371928215026855,12.469822883605957,12.324007034301758,0.2860426604747772,-0.9909194707870483,12.327958106994629,12.46385669708252,-12.370431900024414,-10.487611770629883,-12.341605186462402,12.392160415649414,-12.349093437194824,-12.250811576843262,-12.428537368774414,-12.217637062072754,-0.32301539182662964,6.913044452667236,-12.317151069641113,-10.633543014526367,-1.109586477279663,-12.38556957244873,-10.418938636779785,-11.75583267211914,-0.3405275344848633,1.4268512725830078,-12.37629222869873,-12.376721382141113,-1.6438955068588257,-0.6950687766075134,-12.35405158996582,0.7544804215431213,-3.114060640335083,-12.444583892822266,-12.414288520812988,-0.806328535079956,-4.233644962310791,12.26292610168457,-12.38607406616211,-0.6058263182640076,-9.780081748962402,-0.8337504267692566,-0.6403730511665344,-0.7528347373008728,-4.412388324737549,10.597851753234863,-1.3358770608901978,-1.4175682067871094,-6.615216255187988,-10.62085247039795,-0.3884589672088623,10.009600639343262,-4.324432373046875,-0.13798187673091888,-0.4034282863140106,-10.191900253295898,0.02200913242995739,-0.05672232061624527,-0.2184184342622757,-10.55843734741211,-0.015341656282544136,-9.820759773254395,-10.606087684631348,-10.30669116973877,0.021234583109617233,0.002539171138778329,-7.685533046722412,-7.7470808029174805,1.2564014196395874,3.281153440475464,0.07754944264888763,-2.5685155391693115,0.7521448731422424,-0.02639937214553356,0.03323959559202194,2.8082942962646484,-0.06281575560569763,-0.034873031079769135,0.09065107256174088,3.181257963180542,-0.0010567299323156476,2.4513182640075684,3.288357734680176,2.8315441608428955,0.03501267731189728,0.00018905909382738173,1.6240252256393433,1.6248321533203125,12.338690757751465,12.38184642791748,12.317889213562012,-12.332292556762695,12.430983543395996,11.136968612670898,12.217363357543945,12.342606544494629,0.1443396359682083,-1.960613489151001,11.93100643157959,12.374863624572754,0.30451256036758423,12.45158863067627,12.324431419372559,12.356534004211426,0.06465154141187668,-0.28018543124198914,12.329438209533691,12.346602439880371,7.8954973220825195,11.273445129394531,0.4732234477996826,-10.830729484558105,5.267068386077881,0.17917007207870483,0.49340322613716125,10.90207576751709,-0.005363461561501026,-0.006741607561707497,0.288970023393631,11.274129867553711,0.025471128523349762,10.588945388793945,11.371330261230469,11.072566986083984,0.012236792594194412,0.012081906199455261,8.94289779663086,8.940817832946777,3.435511827468872,7.697924613952637,0.23556946218013763,-6.638482570648193,2.121678113937378,0.07718078792095184,0.19986973702907562,6.834568500518799,0.055814601480960846,-0.05016777291893959,0.09233953058719635,7.617112159729004,0.049850404262542725,6.310125827789307,7.648141860961914,7.048961639404297,0.013968846760690212,0.07356926053762436,4.179831027984619,4.3124918937683105,2.9637632369995117,6.809561729431152,0.19111932814121246,-5.847447395324707,1.71349036693573,0.02946028672158718,0.08105069398880005,6.045427322387695,-0.0757080614566803,-0.009896221570670605,0.09227900952100754,6.834327220916748,0.06949315965175629,5.530297756195068,6.908814907073975,6.200980186462402,-0.042146455496549606,0.04811810702085495,3.6737446784973145,3.7672042846679688,11.884452819824219,12.301835060119629,1.922790765762329,-12.312745094299316,10.793787002563477,0.5907500982284546,1.84809148311615,12.223783493041992,-0.043523937463760376,-0.0046517206355929375,1.190517544746399,12.324455261230469,-0.018498126417398453,12.213512420654297,12.336577415466309,12.308128356933594,-0.008835540153086185,-0.014584430493414402,12.034733772277832,12.068913459777832,-12.386420249938965,-8.258312225341797,-12.39506721496582,10.325565338134766,-12.426173210144043,-12.325238227844238,-12.382511138916016,-9.746308326721191,-0.48010268807411194,8.271332740783691,-12.349808692932129,-8.388277053833008,-1.4050159454345703,-10.854769706726074,-8.170879364013672,-9.235076904296875,-0.47488686442375183,1.8424036502838135,-12.341594696044922,-12.464634895324707,11.985784530639648,0.06533554941415787,0.01294220145791769,-0.03320518136024475,-0.03631098195910454,11.912842750549316,0.0245471503585577,-0.05721236392855644,0.024532640352845192,-11.85559368133545,11.936761856079102,11.922198295593262,11.9716157913208,11.93339729309082,11.900821685791016,-0.014782635495066643,11.75189208984375,-0.06827764213085175,11.970870971679688,0.004333544056862593,-11.903382301330566,-12.294529914855957,-1.9887545108795166,12.221041679382324,-10.953269004821777,-0.6212878823280334,-2.027287721633911,-12.365825653076172,0.050367213785648346,-0.021466203033924103,-1.278801679611206,-12.27940845489502,-0.04167216643691063,-12.325823783874512,-12.258807182312012,-12.372425079345703,0.029327142983675003,-0.020437972620129585,-11.994821548461914,-11.993908882141113,-3.154142379760742,1.0068820714950562,12.354653358459473,-1.2999701499938965,5.220743656158447,3.077629804611206,12.413634300231934,1.1995091438293457,2.32668137550354,-2.9500763416290283,3.1243863105773926,-1.7324068546295166,-2.2173147201538086,-2.205655813217163,-1.708607792854309,1.1467832326889038,-6.828864097595215,-8.167248725891113,2.273193836212158,2.556701421737671,-12.459542274475098,-12.43570327758789,-8.940208435058594,12.320277214050293,-12.419852256774902,-3.88643741607666,-8.95280933380127,-12.401512145996094,0.008692813105881214,0.28993168473243713,-6.463912010192871,-12.3560791015625,-0.10029935091733932,-12.3848237991333,-12.408974647521973,-12.412205696105957,-0.032664790749549866,0.028927898034453392,-12.447455406188965,-12.463857650756836]},"outputBias":{"rows":20,"columns":1,"weights":[18.91352081298828,-4.93703031539917,-12.148832321166992,-4.333475589752197,-12.401145935058594,12.34779167175293,-12.382503509521484,-12.401069641113281,-0.08061052113771439,0.010524144396185875,1.5931130647659302,0.1031298041343689,0.06350699067115784,0.040984008461236954,0.4848068654537201,-12.365711212158203,3.275242477229767e-7,-0.5984456539154053,2.725762128829956,-0.8365387916564941]},"cellActivationMatrix":{"rows":20,"columns":1,"weights":[4.079105377197266,-0.17065110802650452,-12.298147201538086,2.4737093448638916,-0.024088893085718155,12.406177520751953,-0.21983081102371216,-0.619738757610321,-12.359779357910156,-12.421194076538086,0.0966840609908104,0.024309631437063217,12.456889152526855,0.04451201483607292,12.421236991882324,-0.0004884175723418593,12.461668968200684,9.751996994018555,12.435272216796875,-0.8551716804504395]},"cellActivationHidden":{"rows":20,"columns":20,"weights":[12.375038146972656,12.37492847442627,5.913471698760986,-12.393378257751465,12.206372261047363,2.0797431468963623,5.8606719970703125,12.455941200256348,-0.008440032601356506,-0.13914622366428375,3.7987213134765625,12.441670417785645,0.050954513251781464,12.416133880615234,12.46776008605957,12.432890892028809,0.05791196599602699,-0.06953013688325882,12.34737491607666,12.434941291809082,-0.0712188109755516,-0.07881023734807968,-0.06317152827978134,0.026642482727766037,0.03280516341328621,-0.007802844047546387,-0.005365696270018816,-0.06302729994058609,-0.010429349727928638,0.02407195419073105,-0.003227164503186941,0.06414014101028442,-0.01966400071978569,-0.039996370673179626,-0.016867246478796005,0.047310326248407364,-0.011710482649505138,0.055699583142995834,0.07333396375179291,-0.03363272547721863,-0.29594701528549194,-0.8377760648727417,-0.06658914685249329,0.5683499574661255,-0.17120715975761414,-0.03993195295333862,-0.01771332137286663,-0.7161229252815247,0.019631382077932358,-0.02345532365143299,-0.05533711984753609,-0.774447500705719,-0.02082160860300064,-0.6408944129943848,-0.843287467956543,-0.7011194825172424,-0.06779108196496964,-0.025430509820580482,-0.36974015831947327,-0.3912171721458435,12.323975563049316,12.417949676513672,8.346464157104492,-12.321673393249512,12.331185340881348,3.4487390518188477,8.34808349609375,12.326581954956055,0.0686744675040245,-0.3303093910217285,6.039310455322266,12.352603912353516,-0.03292752802371979,12.446065902709961,12.394125938415527,12.44314193725586,0.036997247487306595,-0.10855358839035034,12.381816864013672,12.464532852172852,-12.445149421691895,-5.50340461730957,-12.446441650390625,6.976223468780518,-12.325285911560059,-12.449959754943848,-12.36953353881836,-6.392177104949951,-0.6726387143135071,9.956985473632812,-12.32326602935791,-5.562994956970215,-2.0688774585723877,-7.143581390380859,-5.484455108642578,-6.245669841766357,-0.5596308708190918,2.68799090385437,-11.8900728225708,-12.480196952819824,0.41834184527397156,1.149688720703125,-0.029361383989453316,-0.9459657073020935,0.3102506995201111,-0.008813314139842987,-0.026514168828725815,0.9712826013565063,0.04849992319941521,0.03772417828440666,0.03903681039810181,1.2052478790283203,-0.04908403754234314,0.8404577970504761,1.158625841140747,0.9936036467552185,0.06406525522470474,-0.051286276429891586,0.5644325613975525,0.6297563910484314,-12.396723747253418,-12.416913032531738,-12.298776626586914,12.476787567138672,-12.401595115661621,-11.803467750549316,-12.312101364135742,-12.470805168151855,-0.06476515531539917,2.7746005058288574,-12.1511812210083,-12.444385528564453,-0.30261167883872986,-12.341470718383789,-12.359099388122559,-12.439139366149902,-0.154275044798851,0.42908987402915955,-12.355707168579102,-12.397686004638672,-0.030932538211345673,0.04071807861328125,-0.01849212497472763,0.04534163698554039,-0.07099352031946182,-0.07348436117172241,-0.030376866459846497,-0.07263963669538498,-0.06751178205013275,-0.05307504162192345,0.017454072833061218,0.022897666320204735,0.04935036972165108,0.015611397102475166,-0.013058357872068882,-0.05320229008793831,-0.05014472454786301,0.06784957647323608,0.03926434367895126,-0.07342055439949036,-0.4771784543991089,-1.2758840322494507,-0.03575874865055084,0.9422743916511536,-0.2503054141998291,0.06925618648529053,-0.009816909208893776,-1.0281928777694702,0.0022480697371065617,-0.014588017016649246,0.03983696550130844,-1.2477706670761108,-0.05604174733161926,-1.03944993019104,-1.3499913215637207,-1.1224666833877563,-0.05620529130101204,0.0059060570783913136,-0.6194327473640442,-0.6061928272247314,-1.567933440208435,-4.0826287269592285,-0.13896703720092773,3.3077781200408936,-0.9113141298294067,-0.07335814088582993,-0.155613973736763,-3.4180195331573486,-0.07708540558815002,-0.05187983438372612,-0.04873371869325638,-4.016624450683594,-0.022202646359801292,-3.0900354385375977,-3.9875173568725586,-3.664823055267334,0.04684968665242195,0.05493990704417229,-1.928836703300476,-2.042107343673706,0.04627988114953041,0.030643709003925323,-0.028624214231967926,-0.04270255193114281,0.07351798564195633,0.07296434789896011,0.02308361791074276,-0.0377090759575367,-0.0778070017695427,-0.07684628665447235,0.0025703669525682926,-0.07535675913095474,-0.04034307599067688,0.04859834164381027,0.07695265114307404,0.06635858118534088,-0.03657834604382515,0.029061853885650635,-0.04737148433923721,0.0005202931351959705,6.92287540435791,2.500772714614868,12.391995429992676,-3.2580060958862305,12.361759185791016,12.469883918762207,12.462703704833984,3.0311365127563477,1.256094217300415,-11.642902374267578,12.37466049194336,2.5733227729797363,4.077709197998047,3.295198440551758,2.5543782711029053,2.883601427078247,1.2333506345748901,-5.058011054992676,5.567283630371094,5.891337871551514,8.512264251708984,0.04068009555339813,-0.006297430023550987,0.02650870382785797,0.0209195576608181,8.566433906555176,-0.05831540375947952,-0.0034419933799654245,0.07019148021936417,-8.516915321350098,8.506672859191895,8.420780181884766,8.52592658996582,8.510807037353516,8.477673530578613,0.04528922587633133,7.423942565917969,-0.06848955899477005,8.4202241897583,0.07746325433254242,12.443603515625,5.335629940032959,12.389542579650879,-6.694653511047363,12.42559814453125,12.354326248168945,12.365397453308105,6.218628883361816,0.6056529879570007,-9.96552848815918,12.341352462768555,5.417886734008789,2.151305675506592,7.008707046508789,5.411010265350342,6.11128044128418,0.6114581823348999,-2.677532196044922,11.504596710205078,12.070387840270996,0.5676320791244507,1.317874550819397,-0.026998141780495644,-1.0558290481567383,0.36272624135017395,-0.06606283038854599,0.002381185069680214,1.1367534399032593,-0.04582669958472252,-0.04552610218524933,0.015728380531072617,1.2835240364074707,0.04021678492426872,1.0201894044876099,1.3961175680160522,1.1188981533050537,-0.017005905508995056,0.014615883119404316,0.5623331665992737,0.559206485748291,-1.5114960670471191,-0.49425241351127625,-12.391181945800781,0.6720556616783142,-2.6449599266052246,-12.456893920898438,-12.397229194641113,-0.6042929291725159,-4.604799270629883,12.414937019348145,-12.45848274230957,-0.6081854104995728,-10.155190467834473,-0.7851875424385071,-0.551502525806427,-0.679698646068573,-4.758822441101074,10.83888053894043,-1.1273661851882935,-1.2502422332763672,8.951961517333984,-0.00970495119690895,-0.0301029272377491,0.009087296202778816,0.04346608743071556,9.002949714660645,0.007868940941989422,-0.016790296882390976,0.03491966426372528,-9.019286155700684,8.966453552246094,8.903095245361328,9.022719383239746,8.979707717895508,8.95138931274414,-0.055783163756132126,7.974759101867676,-0.007671467959880829,8.898518562316895,0.012451385147869587,0.0739581286907196,0.1027265340089798,0.021295316517353058,-0.033975619822740555,0.014123602770268917,-0.0019075501477345824,0.057694580405950546,0.024768471717834473,-0.011334452778100967,-0.012594764120876789,0.02889803983271122,0.1698562204837799,0.01842457242310047,0.1074100211262703,0.09307753294706345,0.07473886758089066,0.02587936818599701,0.042692072689533234,0.0052686105482280254,0.04805438965559006,3.1808836460113525,7.257744789123535,0.17314118146896362,-6.206353664398193,1.9189257621765137,0.04682561755180359,0.20112939178943634,6.471546649932861,-0.007750957738608122,-0.06708906590938568,0.15897372364997864,7.14755392074585,-0.014710582792758942,5.957947254180908,7.191000938415527,6.62044620513916,-0.02912989817559719,-0.04883846640586853,3.8385677337646484,3.8794028759002686,-12.360713005065918,-12.384618759155273,-11.585749626159668,12.348077774047852,-12.34496021270752,-7.7277374267578125,-11.461820602416992,-12.381643295288086,-0.09745949506759644,0.7991500496864319,-10.058528900146484,-12.351048469543457,-0.0939689502120018,-12.444046020507812,-12.479305267333984,-12.479483604431152,-0.041311249136924744,0.06292789429426193,-12.469290733337402,-12.351551055908203]},"cellActivationBias":{"rows":20,"columns":1,"weights":[5.600382328033447,0,-0.0016605366254225373,4.328395843505859,-12.399148941040039,0.0023232963867485523,-11.897167205810547,0,-0.00269693392328918,-0.013476720079779625,0,12.401095390319824,6.2982317139415045e-9,12.395424842834473,0.02754235453903675,-10.161234855651855,0,0.00020588732149917632,0.13635680079460144,-11.38729476928711]}}],"outputConnector":{"rows":1,"columns":20,"weights":[-10.05516529083252,-0.008251223713159561,0.29616284370422363,0.021048471331596375,-0.048845741897821426,-9.017483711242676,0.2672104239463806,-0.06403743475675583,12.358565330505371,-2.3516104221343994,-9.4379243850708,-10.053616523742676,2.30544114112854,-10.083024978637695,-10.070196151733398,-0.027132386341691017,2.305704355239868,-12.358465194702148,-9.542168617248535,-0.05416639894247055]},"output":{"rows":1,"columns":1,"weights":[204.58828735351562]},"inputLookup":null,"inputLookupLength":0,"outputLookup":null,"outputLookupLength":0}