{"type":"LSTMTimeStep","options":{"inputSize":1,"inputRange":0,"hiddenLayers":[20],"outputSize":1,"decayRate":0.999,"smoothEps":1e-8,"regc":0.000001,"clipval":5,"maxPredictionLength":100,"dataFormatter":{"indexTable":{},"characterTable":{},"characters":[],"specialIndexes":[]}},"hiddenLayers":[{"inputMatrix":{"rows":20,"columns":1,"weights":[12.359156608581543,-5.429188251495361,-12.480475425720215,2.7349653244018555,12.266274452209473,-0.02621886506676674,-12.335731506347656,-12.47851848602295,0.04645008221268654,-0.06505784392356873,-0.06795106083154678,-7.475144863128662,-1.1039353609085083,8.169840812683105,-12.472753524780273,-0.2633420526981354,-4.117458820343018,12.358842849731445,0.07366207987070084,-12.385034561157227]},"inputHidden":{"rows":20,"columns":20,"weights":[0.007867964915931225,-0.06621415913105011,-0.062449902296066284,0.0692085325717926,-0.05593987554311752,-4.773828983306885,1.1894923448562622,0.005848399363458157,-6.095787525177002,-0.12006693333387375,-0.18192987143993378,-0.050275832414627075,-0.0016003343043848872,0.04623084142804146,0.010580932721495628,0.0527072548866272,-7.207101345062256,0.07504986971616745,-2.7247796058654785,-0.05108829587697983,0.06450699269771576,0.05038123205304146,-0.0505714975297451,-0.046580199152231216,0.05535991117358208,0.053454574197530746,0.051172636449337006,0.07490940392017365,0.02404205873608589,-0.028074050322175026,-0.06078944727778435,0.05736798420548439,-0.007630901411175728,-0.023573368787765503,0.027517618611454964,-0.04668731987476349,0.09015946090221405,0.050651464611291885,-0.00549524649977684,0.043193016201257706,0.0022801526356488466,-0.012883278541266918,-0.060548435896635056,0.16568078100681305,0.493490606546402,12.106644630432129,-9.48755168914795,0.00005976724060019478,12.303587913513184,2.1768178939819336,2.5298664569854736,-0.04295113682746887,0.18943963944911957,0.037177443504333496,0.0647571012377739,-0.5055133104324341,12.343140602111816,0.06306642293930054,11.63099193572998,0.08436676859855652,0.04486316815018654,-0.046632565557956696,0.10461639612913132,-0.45043960213661194,-1.9876439571380615,-12.330612182617188,12.280059814453125,0.08778420835733414,-12.45391845703125,-7.931684494018555,-8.660589218139648,0.031051550060510635,-0.6470332741737366,-0.05005951598286629,0.03550548106431961,2.3447768688201904,-12.4307861328125,0.0778825581073761,-12.337834358215332,-0.4097256362438202,-0.06809127330780029,-0.0315157026052475,0.03983291983604431,-0.01669584959745407,0.02824585698544979,-0.2683901786804199,-0.009370440617203712,0.0463569201529026,-0.3273981809616089,0.02127804234623909,0.022969195619225502,-0.03527256101369858,0.05138091370463371,0.06977903842926025,0.01860296167433262,-0.013974406756460667,-0.37067070603370667,-0.02010287530720234,-0.05677980184555054,0.048664405941963196,3.29091739654541,11.843976020812988,-12.226518630981445,12.344058990478516,12.400824546813965,1.280839443206787,-5.198711395263672,-12.101932525634766,0.9227606058120728,12.372431755065918,12.407355308532715,-0.04900118336081505,12.463679313659668,-0.012034027837216854,2.46182918548584,-12.454421997070312,0.7552222609519958,-10.454736709594727,2.3904378414154053,12.444472312927246,0.04314865544438362,0.04132837802171707,-0.04794079065322876,0.025881560519337654,0.21170206367969513,10.929454803466797,-5.040534496307373,0.02090620994567871,11.501585960388184,0.863757848739624,0.8505854606628418,-0.030638866126537323,0.1124148890376091,0.028846925124526024,0.045789413154125214,-0.11150522530078888,11.794214248657227,-0.014528106898069382,8.784666061401367,0.10635165125131607,0.03178735077381134,-0.048715200275182724,-0.0890209972858429,0.0015924843028187752,0.31746000051498413,11.689053535461426,-6.721401214599609,0.0334961973130703,12.029541969299316,1.2303706407546997,1.351280689239502,-0.06648249179124832,0.13081428408622742,0.011935207061469555,0.06096424162387848,-0.2065345048904419,12.20069694519043,0.03590324521064758,10.275566101074219,0.09541025757789612,-0.35562190413475037,-4.581935882568359,8.808618545532227,-11.539517402648926,-12.436559677124023,-9.726318359375,12.421937942504883,6.183777809143066,-7.296662330627441,-12.421936988830566,-12.359392166137695,0.05314427614212036,-12.079869270324707,-0.04902242496609688,-0.3456425070762634,12.38817024230957,-6.04201602935791,2.273533821105957,-12.445094108581543,-11.724788665771484,0.3904982805252075,4.803310394287109,-8.95942211151123,11.576650619506836,12.40297794342041,9.466078758239746,-12.340094566345215,-6.520761489868164,7.1826395988464355,12.44502067565918,12.35757827758789,-0.06981836259365082,12.109614372253418,0.011916236020624638,0.32804954051971436,-12.430584907531738,5.81294584274292,-2.3034398555755615,12.465954780578613,11.8043794631958,0.36872991919517517,4.994439601898193,-9.186067581176758,11.59666633605957,12.361302375793457,9.195853233337402,-12.468246459960938,-6.612905502319336,6.953625202178955,12.361044883728027,12.345149040222168,-0.0070574465207755566,12.02581787109375,-0.07685656100511551,0.38412684202194214,-12.386083602905273,5.646711349487305,-2.501206398010254,12.378436088562012,11.873530387878418,0.021954024210572243,-0.008833929896354675,0.028302989900112152,-0.041262466460466385,-0.010358788073062897,0.04846067726612091,0.05440736189484596,-0.053231678903102875,-0.0227279681712389,-0.01366333570331335,-0.011765663512051105,-0.05925754830241203,-0.012754291296005249,0.02483746036887169,0.020563028752803802,0.00036563261528499424,0.09149601310491562,0.063655786216259,0.06142536550760269,0.02691231295466423,0.04404808208346367,0.1444365233182907,-0.45304447412490845,1.017111897468567,5.072691917419434,12.326326370239258,-12.442243576049805,-0.18618370592594147,12.460965156555176,11.360970497131348,11.49039363861084,-0.06435519456863403,1.6374708414077759,0.0472172386944294,0.06365510821342468,-5.5691938400268555,12.446245193481445,-0.056482814252376556,12.347061157226562,1.2738643884658813,-0.0821148082613945,-0.035982366651296616,-0.060853734612464905,-0.09404832124710083,-0.07027347385883331,0.040154408663511276,0.002987447427585721,-0.06865276396274567,-0.10746131092309952,0.06881561130285263,-0.010056435130536556,-0.0633293092250824,0.019639866426587105,-0.11461051553487778,0.05242687836289406,-0.06544226408004761,0.0395139716565609,0.07801366597414017,-0.10465632379055023,0.04481293261051178,-0.04446099326014519,0.0517742857336998,-0.04603932797908783,0.04349079355597496,0.047811295837163925,4.864692687988281,-1.259811282157898,0.00042624861816875637,6.328458786010742,0.14756213128566742,0.2793136239051819,-0.049887269735336304,-0.02297661080956459,-0.026686714962124825,0.04174700751900673,-0.07726147770881653,7.30288553237915,0.04683641716837883,2.763986349105835,0.054762985557317734,0.08531493693590164,0.7545328140258789,-1.986533761024475,4.450816631317139,11.090596199035645,12.432950973510742,-12.424240112304688,-1.0812156200408936,12.352088928222656,12.345964431762695,12.318917274475098,0.04894189536571503,6.485571384429932,0.07818455994129181,0.08411675691604614,-11.360844612121582,12.36652946472168,-0.3938210606575012,12.422605514526367,5.178519248962402,-0.00031820847652852535,0.008694135583937168,-0.05913832411170006,0.19117902219295502,1.4314765930175781,12.395803451538086,-12.008818626403809,-0.05619988590478897,12.3432035446167,5.983753204345703,6.604130744934082,-0.0008243548800237477,0.3423534333705902,0.01702905260026455,0.01660958305001259,-1.4953279495239258,12.315595626831055,0.03078514151275158,12.385282516479492,0.36376139521598816,-0.020861459895968437,-0.03223222866654396,-0.03225305676460266,0.02750122733414173,0.07092232257127762,-0.38277918100357056,0.123374804854393,-0.038551703095436096,-0.5470996499061584,-0.012008801102638245,-0.03784637898206711,-0.07571468502283096,0.07512559741735458,-0.0029699376318603754,0.015291690826416016,0.06878318637609482,-0.5942761898040771,0.06222007796168327,-0.15685923397541046,-0.0005167719209566712,-0.0764136090874672,-1.7063212394714355,4.081921100616455,-8.066718101501465,-12.063640594482422,-12.357135772705078,12.375500679016113,2.4357521533966064,-12.479528427124023,-12.448052406311035,-12.436173439025879,-0.026569176465272903,-9.980210304260254,0.030435532331466675,-0.14609263837337494,12.126775741577148,-12.352522850036621,0.749459445476532,-12.334887504577637,-8.889566421508789,-0.031614359468221664,0.03602733463048935,0.020297786220908165,0.08413712680339813,0.07766395062208176,10.672737121582031,-4.645941734313965,-0.025912823155522346,11.351441383361816,0.7837981581687927,0.8907975554466248,-0.03188280016183853,0.09578372538089752,-0.06493189930915833,0.03884502500295639,-0.1547878086566925,11.645880699157715,0.06377501785755157,8.247730255126953,-0.031503837555646896]},"inputBias":{"rows":20,"columns":1,"weights":[0.2096709907054901,-0.0009067610953934491,-2.247065305709839,7.526185989379883,0.010293026454746723,-12.401162147521973,-0.5903348326683044,-1.2260349988937378,12.40078067779541,-12.39928150177002,-12.39913558959961,-0.001439357758499682,-11.016489028930664,0.004040555562824011,-0.21959608793258667,-12.321290016174316,-6.202271938323975,0.015559579245746136,12.392123222351074,-0.7935855984687805]},"forgetMatrix":{"rows":20,"columns":1,"weights":[0.35628780722618103,0.049849044531583786,-11.851266860961914,8.645570755004883,2.2095603942871094,-2.356989860534668,-7.42793083190918,-12.387269973754883,0.14908580482006073,-0.29368871450424194,-0.06628743559122086,0.02989339455962181,-8.92449951171875,0.2410959154367447,-3.7762372493743896,-12.362215042114258,-0.09820233285427094,-0.03297645226120949,1.2370829582214355,0.04742860421538353]},"forgetHidden":{"rows":20,"columns":20,"weights":[0.035825785249471664,-0.025308644399046898,0.01346206571906805,0.06339269131422043,0.061778225004673004,-0.07052650302648544,-0.05914837121963501,-0.07451926916837692,0.012260680086910725,-0.07703451067209244,0.053472548723220825,0.06754365563392639,0.06472817808389664,-0.07752468436956406,-0.04794561117887497,-0.003491990966722369,0.04843077063560486,-0.04633753001689911,0.05462844297289848,0.07458406686782837,-0.058019887655973434,0.01829519495368004,-0.018512841314077377,-0.07141337543725967,-0.02949349395930767,-0.006494509056210518,-0.06353911757469177,0.012384714558720589,0.06688519567251205,-0.015047825872898102,0.03223853185772896,0.022085227072238922,0.02672273851931095,-0.012413720600306988,0.0029366197995841503,0.019153624773025513,0.015838852152228355,-0.047609757632017136,-0.02950596995651722,-0.06846620887517929,0.023697664961218834,0.02613106556236744,-0.002959619276225567,0.007146840915083885,-0.001558991032652557,0.16831231117248535,0.029745278880000114,0.0333278514444828,0.18950636684894562,0.04211566597223282,0.017389873042702675,0.02361423149704933,0.07208896428346634,0.003930739592760801,0.0711827203631401,-0.005291969049721956,0.26729851961135864,0.010194857604801655,0.08406547456979752,0.06738860160112381,0.012837122194468975,0.05018443986773491,0.0007001317571848631,-0.17165449261665344,-0.7575992941856384,-12.244361877441406,10.841829299926758,0.055638205260038376,-12.353917121887207,-3.331935405731201,-3.8069636821746826,0.01581600308418274,-0.18104644119739532,0.015979478135704994,0.06627286970615387,0.8082057237625122,-12.385354042053223,0.02820304036140442,-12.106644630432129,-0.2298942357301712,0.02945711463689804,-0.0028555537573993206,-0.06192612648010254,0.02217351458966732,-0.024517672136425972,-0.012549436651170254,0.061686303466558456,-0.060757435858249664,0.016188057139515877,-0.05375254899263382,-0.014657328836619854,-0.07569272071123123,0.0336117297410965,-0.0225728340446949,-0.03165581822395325,-0.04721047729253769,0.0023962941486388445,-0.06248548626899719,-0.07966424524784088,-0.07329091429710388,0.00644188467413187,0.1382834017276764,-0.13459917902946472,0.44104695320129395,2.4283359050750732,12.327204704284668,-12.273162841796875,-0.13537341356277466,12.346498489379883,8.715608596801758,9.334388732910156,-0.005104486830532551,0.791583240032196,-0.07513603568077087,0.06200403720140457,-2.663137674331665,12.33414363861084,-0.033369481563568115,12.412808418273926,0.5502535104751587,0.0002994761453010142,0.002066674642264843,-0.1308143436908722,0.20066533982753754,0.8063609600067139,12.36335563659668,-11.23074722290039,-0.06027620658278465,12.341476440429688,3.73429536819458,4.309086322784424,-0.03515689820051193,0.2425776869058609,0.0016512786969542503,0.07144830375909805,-0.9107829332351685,12.453367233276367,0.006188394967466593,12.144227027893066,0.18945929408073425,0.024296360090374947,0.01120650302618742,-0.07026305794715881,0.027776721864938736,0.20051273703575134,10.482254981994629,-4.106626510620117,-0.010498004034161568,11.157590866088867,0.7198364734649658,0.6866769790649414,0.03525344282388687,0.11317995190620422,-0.0031483385246247053,-0.008680162951350212,-0.1687372773885727,11.547383308410645,0.03126048669219017,7.880641460418701,0.07304979860782623,-0.036460090428590775,-1.387999415397644,3.214930295944214,-6.8477606773376465,-11.867715835571289,-12.436036109924316,12.432286262512207,1.849806547164917,-12.376419067382812,-12.417236328125,-12.346053123474121,0.0364985466003418,-8.984747886657715,0.01528388261795044,-0.027239494025707245,12.029393196105957,-12.405399322509766,0.565289318561554,-12.381685256958008,-7.5835347175598145,0.1302069127559662,0.643558144569397,-1.5226348638534546,3.7728633880615234,10.720158576965332,12.3978271484375,-12.351691246032715,-0.9043628573417664,12.39321231842041,12.381023406982422,12.411714553833008,0.00837674830108881,5.598574638366699,-0.029728958383202553,0.052175574004650116,-10.912042617797852,12.328277587890625,-0.2229839563369751,12.38118839263916,4.330416679382324,0.20533597469329834,2.2383456230163574,-5.412451267242432,9.355569839477539,12.255278587341309,12.38572883605957,-12.372332572937012,-3.280782699584961,12.423110961914062,12.344518661499023,12.41956615447998,-0.022558152675628662,10.998686790466309,0.006464540027081966,0.16020604968070984,-12.247204780578613,12.4403657913208,-1.0263731479644775,12.351316452026367,10.022012710571289,-0.04379093647003174,-0.04005196690559387,0.011303841136395931,0.03225797414779663,-0.05369655787944794,-0.04120263084769249,-0.07587192952632904,-0.04671277478337288,0.06257416307926178,-0.021685712039470673,0.0707395076751709,-0.07568436115980148,0.02904827706515789,-0.03483369201421738,0.023445066064596176,0.019795529544353485,-0.036750175058841705,0.069765105843544,0.07030926644802094,-0.01582982763648033,0.03352136164903641,-0.03712468594312668,-0.08808307349681854,0.16949670016765594,0.683809220790863,12.325213432312012,-10.876753807067871,-0.08875790983438492,12.281764030456543,3.0717194080352783,3.5889008045196533,-0.06231633946299553,0.12351604551076889,-0.02002236805856228,-0.06294967234134674,-0.7881274819374084,12.320013046264648,-0.04006227105855942,12.007411003112793,0.136991947889328,-3.6907076835632324,0.01584002934396267,0.001355864922516048,-3.6821422576904297,-3.5716354846954346,0.04881518334150314,-0.012388607487082481,0.07698856294155121,-3.706160545349121,-0.07574491947889328,0.03343598172068596,0.05413708835840225,-0.04905654117465019,-4.503245830535889,-0.0392705462872982,-0.06360971182584763,0.03286976367235184,4.495426177978516,-3.618727922439575,0.04146051034331322,0.059803787618875504,-0.03513352945446968,0.02894945628941059,0.051820822060108185,0.05946233496069908,0.06916897743940353,0.004058449063450098,0.02758762612938881,0.03475792706012726,-0.014842482283711433,-0.04630505293607712,0.075692318379879,-0.005957690067589283,-0.0060101766139268875,-0.01652364432811737,0.06105624884366989,0.07426578551530838,0.01436099223792553,0.07253152132034302,-0.0755670890212059,0.05060199275612831,0.04374852776527405,-0.05691809579730034,-0.019622333347797394,0.11532491445541382,9.351670265197754,-3.2583200931549072,0.043570343405008316,10.462018013000488,0.586825966835022,0.5641266703605652,-0.0490395687520504,-0.030970491468906403,-0.06497777998447418,-0.07141315191984177,-0.1237969622015953,10.963518142700195,-0.07855832576751709,6.502307415008545,-0.005758662708103657,0.1453806310892105,2.3622376918792725,-5.317396640777588,9.402992248535156,12.199896812438965,12.427318572998047,-12.352075576782227,-3.274162530899048,12.465200424194336,12.393697738647461,12.374151229858398,0.07085459679365158,10.835269927978516,0.03771389648318291,0.0932081788778305,-12.337335586547852,12.425114631652832,-0.9875075221061707,12.481071472167969,9.994112968444824,7.112344741821289,0.07781963795423508,0.05323506519198418,7.111388206481934,7.0932416915893555,-0.03714659810066223,-0.04655861482024193,-0.05737078934907913,-21.18926429748535,-0.010704481042921543,-0.004443120677024126,0.022137263789772987,-0.027168236672878265,7.184381484985352,0.04272998496890068,-0.04528956115245819,0.04254680499434471,21.24309730529785,7.142056465148926,-0.0449812114238739,0.025489365682005882,-0.09436905384063721,0.3667985796928406,-0.8883461356163025,-4.3341569900512695,-12.421393394470215,12.3115234375,0.28961706161499023,-12.448175430297852,-10.970064163208008,-11.371397018432617,-0.008340572007000446,-1.4608649015426636,-0.02133343555033207,0.04042024537920952,4.8658294677734375,-12.322574615478516,0.07710292190313339,-12.335947036743164,-1.0360512733459473,-0.015065988525748253,0.03766125813126564,0.027573052793741226,0.07073486596345901,0.037445224821567535,0.006977436598390341,-0.03118143230676651,-0.03316051885485649,0.022328335791826248,0.04427824169397354,0.06584679335355759,-0.06964673846960068,-0.0033451321069151163,-0.0121513856574893,0.017593538388609886,-0.057453714311122894,0.07781942933797836,-0.003722829045727849,-0.04229515418410301,0.06254792213439941]},"forgetBias":{"rows":20,"columns":1,"weights":[0,0,0,0,0,0,0,0,0,0,0,0,0,0,0,0,0,0,0,0]},"outputMatrix":{"rows":20,"columns":1,"weights":[12.353840827941895,-11.526256561279297,-12.385132789611816,12.433571815490723,0.30847305059432983,-0.38220229744911194,-0.20579901337623596,-12.381905555725098,-0.1303531974554062,-12.350478172302246,-0.06792961806058884,-7.502035617828369,-1.1911135911941528,12.4862642288208,-12.421492576599121,-0.22670070827007294,-0.02411458268761635,12.326101303100586,0.179202139377594,-2.7829058170318604]},"outputHidden":{"rows":20,"columns":20,"weights":[-0.011125479824841022,0.06897133588790894,0.040801696479320526,0.031130943447351456,-0.03141722083091736,-4.871910572052002,1.3068608045578003,-0.048599790781736374,-6.101020336151123,-0.18927234411239624,-0.20404013991355896,0.01751790940761566,0.0477028489112854,0.0664493590593338,-0.07321048527956009,0.09767638146877289,-7.121057033538818,0.05388152599334717,-2.6736552715301514,0.06760581582784653,0.042013466358184814,0.05259484797716141,-0.10339611023664474,0.04904192313551903,0.4684416651725769,12.180713653564453,-9.997854232788086,0.04515739157795906,12.358064651489258,2.506103277206421,2.766883611679077,0.06450071930885315,0.07815039902925491,0.003929477650672197,-0.024245426058769226,-0.5501214265823364,12.281881332397461,-0.05446949228644371,11.775520324707031,0.1200215220451355,-0.06976722925901413,-0.0042756423354148865,-0.10196352005004883,0.09493571519851685,0.4165624976158142,12.121198654174805,-9.347051620483398,0.044971514493227005,12.277713775634766,2.097443103790283,2.4556000232696533,-0.03612357750535011,0.10163604468107224,-0.01902994140982628,-0.03124377317726612,-0.43114805221557617,12.35071849822998,0.013600167818367481,11.673700332641602,0.12132757902145386,0.004654628224670887,0.028797442093491554,-0.07124071568250656,-0.047068092972040176,-0.07083790749311447,-0.9303662180900574,0.25881993770599365,0.026721501722931862,-1.15153968334198,-0.024579696357250214,0.02864268608391285,-0.07062885165214539,-0.057220328599214554,0.0377836748957634,-0.06259873509407043,0.05910050868988037,-1.463802456855774,0.03672359138727188,-0.5053046941757202,-0.021723084151744843,-0.06401606649160385,-0.5340650081634521,1.3019194602966309,-3.0050556659698486,-9.876266479492188,-12.329755783081055,12.400753021240234,0.7423559427261353,-12.449162483215332,-12.177071571350098,-12.293673515319824,-0.042592063546180725,-4.522586345672607,0.07821699231863022,-0.08559983968734741,10.217080116271973,-12.345178604125977,0.25079846382141113,-12.357173919677734,-3.4600861072540283,0.003339548595249653,0.3631612956523895,-1.1011995077133179,2.54394793510437,9.060206413269043,12.410943984985352,-12.363354682922363,-0.5601547956466675,12.401978492736816,12.250876426696777,12.280166625976562,-0.027954425662755966,3.81632399559021,0.05655745789408684,0.08458591252565384,-9.619848251342773,12.471050262451172,-0.22435349225997925,12.408548355102539,2.8499369621276855,-0.008731408976018429,0.749238133430481,-1.7666970491409302,4.186709880828857,10.982316970825195,12.356673240661621,-12.384356498718262,-1.0994049310684204,12.465116500854492,12.375250816345215,12.31895923614502,0.013202582485973835,6.29400634765625,-0.0682670995593071,0.11908978968858719,-11.252400398254395,12.378257751464844,-0.3930245637893677,12.37575626373291,4.864273548126221,-0.01792529597878456,-0.02732832171022892,-0.026983607560396194,0.0011392945889383554,0.03544101119041443,9.009673118591309,-2.961308002471924,0.009120124392211437,10.167899131774902,0.5016021728515625,0.47785091400146484,-0.01794854924082756,0.01922605186700821,0.010256577283143997,-0.021509168669581413,-0.1278400868177414,10.726603507995605,0.04118725657463074,6.159963607788086,0.01726478338241577,-9.704473495483398,-12.133296966552734,12.301624298095703,-18.178659439086914,-19.301433563232422,-0.8264330625534058,3.8693196773529053,12.229565620422363,-8.787079811096191,-12.437639236450195,-12.345528602600098,-0.006161621771752834,-12.381438255310059,-5.799559116363525,-2.952139377593994,12.389509201049805,-0.47795918583869934,16.782608032226562,-9.965813636779785,-12.336712837219238,-0.023765983060002327,0.04063161835074425,-0.0507962591946125,0.012911578640341759,0.2550335228443146,11.721017837524414,-7.205141067504883,-0.03997734189033508,11.965862274169922,1.3820397853851318,1.5215362310409546,0.05026042461395264,0.04163545370101929,0.06274151802062988,0.04209881275892258,-0.34201133251190186,12.216217994689941,0.030128659680485725,10.499263763427734,-0.011063674464821815,0.11169799417257309,2.086663246154785,-5.087048053741455,9.065958023071289,12.252321243286133,12.375299453735352,-12.419520378112793,-3.020848274230957,12.369182586669922,12.344863891601562,12.36305046081543,-0.030358994379639626,10.735546112060547,-0.07694821059703827,0.15944154560565948,-12.229878425598145,12.470364570617676,-1.0067341327667236,12.439291954040527,9.747203826904297,0.06680717319250107,-0.00839429534971714,-0.0768960639834404,-0.07780998945236206,0.0633075013756752,0.0290987528860569,0.017945710569620132,0.04214609041810036,-0.004531512036919594,0.07704413682222366,0.028086639940738678,0.06081965193152428,-0.010702039115130901,-0.06901509314775467,-0.03425610810518265,-0.014835643582046032,0.08409237116575241,0.010992192663252354,0.0376971960067749,-0.03714384138584137,-0.02625887095928192,0.10080085694789886,-0.4102020859718323,0.9388947486877441,4.468756675720215,12.334613800048828,-12.28661823272705,-0.2820638120174408,12.360764503479004,11.048789978027344,11.411230087280273,0.026583923026919365,1.4623390436172485,0.061952169984579086,0.05832428112626076,-4.926405906677246,12.370814323425293,-0.10555493831634521,12.342618942260742,1.0437158346176147,-1.1606136560440063,-0.025853196159005165,-0.01399195659905672,-1.1421681642532349,-1.134108304977417,0.07072216272354126,-0.03697451204061508,-0.011068313382565975,-1.1380274295806885,0.06330249458551407,0.053122349083423615,-0.06134825944900513,0.023954598233103752,-0.9128501415252686,-0.04136443883180618,0.07315342128276825,0.011992979794740677,0.8846328258514404,-1.2084197998046875,0.045809753239154816,-0.022652948275208473,-0.07399610430002213,0.07446309924125671,0.06275692582130432,0.11545142531394958,4.940671443939209,-1.3256458044052124,0.05417364463210106,6.31108283996582,0.24073545634746552,0.18407797813415527,-0.033408790826797485,0.06308089941740036,0.03763270378112793,-0.06755425035953522,-0.07047112286090851,7.2144622802734375,-0.02570587955415249,2.7516868114471436,0.0801643580198288,0.0826285183429718,0.7429136037826538,-1.9834933280944824,4.438450336456299,11.1953125,12.39664363861084,-12.462498664855957,-1.1857757568359375,12.45438289642334,12.34172248840332,12.279342651367188,0.05407446250319481,6.629175186157227,-0.02849690616130829,0.054358817636966705,-11.459848403930664,12.477253913879395,-0.4110901355743408,12.322216033935547,5.177803039550781,0.2268398553133011,3.0564119815826416,-6.80618953704834,10.461935997009277,12.270766258239746,12.326741218566895,-12.38758373260498,-4.3342814445495605,11.623128890991211,12.33977222442627,12.325262069702148,-0.0008680241298861802,11.542985916137695,0.03834865242242813,0.17770297825336456,-12.362703323364258,9.341462135314941,-1.4478669166564941,12.461786270141602,10.916726112365723,0.06814856082201004,-0.020764628425240517,0.0022809358779340982,0.018431033939123154,-0.2563268542289734,-11.504814147949219,6.140383720397949,-0.031271982938051224,-11.87214469909668,-1.0921128988265991,-1.19161057472229,-0.05689297989010811,-0.04212503507733345,0.008585255593061447,-0.0602579340338707,0.1899169385433197,-12.030523300170898,-0.014531407505273819,-9.863887786865234,-0.04706856980919838,-0.08914731442928314,-1.0302428007125854,2.7243173122406006,-5.746162414550781,-11.670899391174316,-12.429696083068848,12.434623718261719,1.5174211263656616,-12.343016624450684,-12.404753684997559,-12.39968490600586,-0.0030784253031015396,-8.189288139343262,-0.06357333064079285,-0.09910968691110611,11.890504837036133,-12.3253755569458,0.4783688485622406,-12.402532577514648,-6.558451175689697,0.015219914726912975,0.0611799955368042,-0.22012625634670258,0.43450385332107544,2.1377127170562744,12.450037002563477,-12.177607536315918,-0.1407885104417801,12.459531784057617,7.958057880401611,8.60118579864502,-0.05612045153975487,0.5898749828338623,-0.0006325633730739355,0.05787328630685806,-2.2629446983337402,12.378900527954102,-0.09190914034843445,12.435510635375977,0.44977638125419617]},"outputBias":{"rows":20,"columns":1,"weights":[0.21024583280086517,-2.4415881633758545,-0.27164867520332336,0.024717161431908607,12.229671478271484,-9.475151062011719,-12.197577476501465,-0.1025342047214508,-5.2012786865234375,-1.2867546081542969,-12.324881553649902,-0.0014408917631953955,-6.245306968688965,0.021828584372997284,-0.20428144931793213,-12.168561935424805,-12.396472930908203,1.0936208963394165,10.82429313659668,-7.595643043518066]},"cellActivationMatrix":{"rows":20,"columns":1,"weights":[-12.405250549316406,12.378766059875488,0.0770835429430008,-2.215651512145996,-0.09377861022949219,1.4435864686965942,-0.00008616731793154031,-12.39211368560791,-3.599937677383423,12.364523887634277,12.372408866882324,0.06892828643321991,0.28360357880592346,-0.41905757784843445,10.965999603271484,-12.300865173339844,12.356328010559082,0.9759770631790161,-0.6614146828651428,12.390923500061035]},"cellActivationHidden":{"rows":20,"columns":20,"weights":[0.004648799542337656,0.06761067360639572,0.07077068835496902,0.01646142080426216,0.033931877464056015,1.4322398900985718,-0.26054647564888,-0.07217639684677124,1.9677455425262451,0.0627099797129631,0.03199455887079239,-0.004148104693740606,-0.048339053988456726,0.009398640133440495,0.0658951848745346,-0.07952214032411575,2.4344990253448486,0.03379173204302788,0.8076602816581726,0.014994410797953606,-0.0014034141786396503,-0.00240030768327415,-0.029126357287168503,0.06287456303834915,0.007842245511710644,-1.41289222240448,0.37782180309295654,-0.020937221124768257,-1.9924598932266235,-0.048022590577602386,-0.09514165669679642,-0.030066855251789093,-0.017719794064760208,0.028692547231912613,-0.06742128729820251,0.007005420513451099,-2.5348987579345703,0.013490143232047558,-0.7146373391151428,0.06175898388028145,-0.02714553475379944,-0.014280865900218487,0.0010361308231949806,-0.06046829745173454,0.06299454718828201,-0.03385297954082489,-0.007327950559556484,0.01842125691473484,0.05270491912961006,0.07586785405874252,0.01669890619814396,0.04254809767007828,0.03855634480714798,-0.06031706556677818,0.022288428619503975,-0.0443592332303524,0.02490583248436451,-0.05721068009734154,0.03584763780236244,0.01301504485309124,0.0718173161149025,-0.00996360369026661,0.0008062573615461588,-0.05564085394144058,-0.01016939990222454,0.0469689704477787,-0.05243631452322006,-0.023562101647257805,0.02088378369808197,-0.04630216583609581,-0.040068019181489944,-0.07786493748426437,0.0415208525955677,-0.00346876448020339,-0.028961118310689926,-0.015945596620440483,0.07780616730451584,0.020160119980573654,0.0456235334277153,-0.009282643906772137,-0.06850294768810272,0.07536578923463821,0.04859687760472298,-0.05742495879530907,0.0260920487344265,-0.031352411955595016,0.05948205664753914,0.006027483381330967,0.0334196574985981,0.07562250643968582,0.020094407722353935,0.02870878018438816,-0.03195548057556152,-0.05614563822746277,0.007922457531094551,0.045930489897727966,0.023684019222855568,-0.030875924974679947,0.07371023297309875,0.04004129767417908,0.024483513087034225,-0.08647006005048752,0.29098910093307495,-0.7916101813316345,-3.912130355834961,-12.416977882385254,12.298340797424316,0.14595580101013184,-12.453327178955078,-10.514212608337402,-10.873793601989746,-0.046107035130262375,-1.1117265224456787,0.01167688611894846,0.035069309175014496,4.298295021057129,-12.442534446716309,0.038282837718725204,-12.35159683227539,-0.9172176122665405,10.318371772766113,12.373764038085938,-12.34121036529541,12.47895622253418,12.3241548538208,0.2475205659866333,-0.9409286975860596,-12.42556381225586,0.12708278000354767,6.22800350189209,5.252302646636963,-0.12515239417552948,12.377178192138672,-0.013357496820390224,9.044927597045898,-12.366535186767578,0.0566982701420784,-12.2767333984375,0.3954785168170929,12.379911422729492,-0.07192747294902802,-0.06859138607978821,0.014486521482467651,-0.05071820318698883,0.17483694851398468,9.166141510009766,-3.179997444152832,-0.039447203278541565,10.265406608581543,0.4177829921245575,0.5556321740150452,-0.024940626695752144,0.0500558502972126,-0.023418938741087914,-0.07135436683893204,-0.08551499992609024,10.905119895935059,0.05034172162413597,6.3047075271606445,-0.003100620349869132,0.03832763805985451,0.07731179893016815,0.07351239770650864,-0.032288555055856705,0.009348464198410511,0.06282324343919754,-0.031954750418663025,-0.06278932839632034,0.0816086083650589,0.00807812437415123,0.07504719495773315,-0.02827695943415165,0.05224292352795601,0.07737915962934494,-0.06380684673786163,0.01251134928315878,0.05897226557135582,0.07648442685604095,-0.019002601504325867,0.04871385172009468,0.06393004953861237,0.002839195542037487,-0.01273417379707098,-0.08638694137334824,-0.08461150527000427,-6.577833652496338,1.8542388677597046,0.07528609037399292,-8.092379570007324,-0.3071453869342804,-0.318497896194458,-0.01390172727406025,0.05446995422244072,-0.007839035242795944,-0.01729429140686989,0.12465284019708633,-9.085103034973145,0.03969034180045128,-3.81148624420166,-0.055316001176834106,-0.05853462591767311,-0.004954948555678129,-0.042012207210063934,-0.07324084639549255,-0.4766159653663635,-12.137218475341797,9.723212242126465,0.04585665464401245,-12.326940536499023,-2.346393346786499,-2.5993282794952393,0.036807816475629807,-0.07358209043741226,0.02303715981543064,-0.052071768790483475,0.5867949724197388,-12.401998519897461,0.06443645060062408,-11.740670204162598,-0.11980337649583817,-0.07620152831077576,0.05048469826579094,0.012229975312948227,0.0665307492017746,-0.047503117471933365,-0.056634627282619476,-0.061265237629413605,-0.043436449021101,0.003919969312846661,0.06475700438022614,-0.02988944761455059,-0.03731692582368851,-0.0011342210927978158,0.017450887709856033,-0.03943266719579697,0.05991385132074356,-0.021887335926294327,0.02671591378748417,0.056787606328725815,-0.06770016252994537,0.06099732220172882,0.023267848417162895,0.0007523149834014475,0.01686471700668335,0.07060044258832932,0.07240047305822372,-0.010163315571844578,-0.014214267022907734,-0.021146167069673538,-0.03798501193523407,0.040332939475774765,-0.04013138636946678,-0.05590784177184105,-0.06571045517921448,-0.06970670819282532,0.0447460375726223,-0.07836861163377762,-0.05448498576879501,-0.04440949112176895,0.0656956285238266,12.433852195739746,-0.06590235233306885,-0.07077029347419739,12.478795051574707,12.419453620910645,-0.07226353138685226,0.056323692202568054,-0.07429424673318863,12.345566749572754,-0.06307879835367203,0.03728614002466202,-0.00615649251267314,0.0061436602845788,12.468269348144531,0.0749567374587059,-0.010162598453462124,-0.0689697265625,-12.403642654418945,12.35919189453125,0.05672382935881615,0.005951195023953915,-0.07008116692304611,-0.021335316821932793,0.04994167014956474,0.04406898468732834,-0.1557094156742096,0.06608416140079498,-0.02397177182137966,-0.15723127126693726,-0.015935018658638,-0.02964445948600769,0.015497839078307152,-0.022350819781422615,-0.02054615318775177,0.0743894949555397,0.0354439802467823,-0.12110085040330887,0.017362428829073906,0.01805191859602928,-0.07309236377477646,-0.00491420878097415,0.031764280050992966,0.010163609869778156,0.028847454115748405,0.033563271164894104,0.3475814461708069,-0.11504078656435013,-0.041620709002017975,0.5035667419433594,-0.027265185490250587,0.019954409450292587,0.07534069567918777,-0.04498299956321716,-0.05785679817199707,0.0665118545293808,-0.05926983058452606,0.7134767174720764,0.03459203988313675,0.2536580264568329,0.04535311087965965,-0.01655539497733116,0.002938477788120508,-0.019726544618606567,0.005860650911927223,-0.12577302753925323,-9.361713409423828,3.1990981101989746,0.01306625921279192,-10.415253639221191,-0.5838996171951294,-0.5430868268013,-0.05497372895479202,-0.068145252764225,0.047226667404174805,0.04695194959640503,0.08565888553857803,-10.978060722351074,0.047454942017793655,-6.359883785247803,-0.09463457018136978,0.021836280822753906,0.047864776104688644,-0.01566542498767376,0.04348386079072952,0.01143881306052208,0.014733579009771347,-0.07270807772874832,-0.00544854486361146,-0.020895740017294884,0.02769318036735058,0.07257432490587234,-0.04381919279694557,0.04077022895216942,-0.0746370330452919,-0.07829634845256805,-0.04192543774843216,0.06771986186504364,0.008176690898835659,0.058889176696538925,0.05852976813912392,0.04915996640920639,-0.04767772927880287,-0.07339845597743988,-0.04576425999403,-0.06561898440122604,-0.02443094737827778,-0.07769273221492767,-0.07078873366117477,-0.01111135445535183,-0.06345349550247192,-0.024502046406269073,0.0350600965321064,0.07188606262207031,-0.03169625625014305,-0.05501542612910271,-0.024435903877019882,-0.032635241746902466,0.06892833113670349,0.06237395480275154,-0.06014716252684593,0.05068085715174675,0.04431691765785217,0.02540639042854309,-0.04984201118350029,-0.4021109640598297,-12.10588550567627,8.979596138000488,0.010485868901014328,-12.1881685256958,-1.9718466997146606,-2.1766326427459717,-0.03383191302418709,-0.05641091242432594,-0.0506075955927372,-0.07514284551143646,0.43837541341781616,-12.34227180480957,-0.05485088750720024,-11.429993629455566,-0.10655563324689865]},"cellActivationBias":{"rows":20,"columns":1,"weights":[-0.07784219086170197,0.0704694390296936,0,-0.00042347158887423575,-0.000004926492238155333,11.971817970275879,-8.959423065185547,-0.5255613923072815,-0.0023950771428644657,0.3217395544052124,2.0825090408325195,-1.7178020117469828e-10,0.00005171384327695705,-12.287482261657715,0.0036733883898705244,-0.02233356423676014,0.6042761206626892,0.0001382295013172552,-0.00012142191553721204,2.0686752796173096]}}],"outputConnector":{"rows":1,"columns":20,"weights":[-12.688154220581055,-12.363907814025879,12.3931303024292,-9.466300964355469,-2.008680582046509,0.05068107321858406,-0.012932932004332542,12.387526512145996,-0.3891543447971344,-0.2625022828578949,-0.22298561036586761,2.2153077125549316,-5.542727947235107,-0.6996931433677673,-12.33016300201416,1.45577871799469,0.042459141463041306,13.10881233215332,-0.280146062374115,-7.631556987762451]},"output":{"rows":1,"columns":1,"weights":[94.92588806152344]},"inputLookup":null,"inputLookupLength":0,"outputLookup":null,"outputLookupLength":0}