{"type":"LSTMTimeStep","options":{"inputSize":1,"inputRange":0,"hiddenLayers":[20],"outputSize":1,"decayRate":0.999,"smoothEps":1e-8,"regc":0.000001,"clipval":5,"maxPredictionLength":100,"dataFormatter":{"indexTable":{},"characterTable":{},"characters":[],"specialIndexes":[]}},"hiddenLayers":[{"inputMatrix":{"rows":20,"columns":1,"weights":[-0.014624817296862602,-5.426177501678467,-2.058124542236328,12.464900970458984,-1.5040892362594604,12.47811222076416,-12.45434284210205,-0.11135026812553406,0.3834371864795685,0.779911994934082,12.365150451660156,12.483504295349121,6.672488689422607,12.388015747070312,-0.25526145100593567,-11.65604019165039,12.339800834655762,-0.15663662552833557,7.204465866088867,12.421855926513672]},"inputHidden":{"rows":20,"columns":20,"weights":[-5.897778034210205,0.030318647623062134,-11.910531044006348,-1.050632357597351,-0.070145383477211,-2.510099411010742,0.6416204571723938,-12.439324378967285,-0.0021917640697211027,1.2734167575836182,-11.699760437011719,-1.0188454389572144,0.056829482316970825,-0.9723049402236938,-0.22793464362621307,12.374500274658203,3.395313262939453,-4.50299072265625,1.0363107919692993,12.398235321044922,0.05433192476630211,0.05959349498152733,-0.018135929480195045,0.031115896999835968,-0.03570609167218208,0.035630784928798676,-0.06393098831176758,-0.04817779362201691,0.04167766869068146,0.08445030450820923,-0.030500978231430054,0.035042740404605865,-0.0657825767993927,0.03617749735713005,0.059444110840559006,0.04500473290681839,0.020872706547379494,0.04002256691455841,0.07813926041126251,-0.021153755486011505,-12.366789817810059,-0.03718734160065651,-0.2169760912656784,-12.385485649108887,0.05311073362827301,0.016894355416297913,-0.026836620643734932,-4.362371444702148,-0.06622432917356491,12.356582641601562,-0.12383011728525162,-0.06430628150701523,-0.04704533889889717,0.04384065791964531,0.0462944395840168,9.94770336151123,-0.04910295084118843,-12.334582328796387,12.415234565734863,1.8645906448364258,1.102691411972046,-0.01858283020555973,0.02034757286310196,5.2058281898498535,-0.05197395011782646,-0.05712219327688217,0.017500003799796104,-0.019546037539839745,-0.04374966397881508,-4.265726089477539,-0.07449591904878616,0.04788484424352646,0.02750042825937271,0.034199655055999756,-0.004166007041931152,-0.1543164700269699,0.0661952868103981,1.3922871351242065,-5.195965766906738,0.047654177993535995,0.01652337610721588,0.05411016196012497,0.002345690503716469,-0.027550823986530304,0.05156746879220009,0.06445716321468353,0.07711658626794815,-0.0747455507516861,-0.04115559533238411,-0.062120065093040466,-0.05037051439285278,-0.04866046831011772,-0.02024916373193264,-0.017477378249168396,-0.0706782117486,-0.05329259857535362,-0.02474798634648323,-0.07610110193490982,0.040453653782606125,-0.02705015055835247,0.007631705608218908,-0.04068249464035034,-0.05936773121356964,12.003984451293945,-0.015091873705387115,11.836840629577637,0.05992972478270531,0.03990008309483528,-0.07415694743394852,-11.933390617370605,11.9918212890625,11.941730499267578,11.94591236114502,11.908910751342773,-0.029299266636371613,-0.055609915405511856,-11.710206985473633,0.046550095081329346,-12.001094818115234,-11.950346946716309,-0.1664978712797165,-0.003307986306026578,0.05271662399172783,-1.1347854137420654,0.016452215611934662,0.018543031066656113,0.04922790080308914,-0.04208074137568474,-0.07697135955095291,0.8687495589256287,-0.025934558361768723,0.034761276096105576,-0.03507305681705475,-0.03276922181248665,0.0005043175769969821,-0.01904154010117054,0.07485193759202957,-0.35256427526474,1.1836498975753784,-0.0518631711602211,-12.401962280273438,-0.035085100680589676,-3.0848326683044434,-12.4097261428833,0.029680242761969566,-0.18321548402309418,0.0078132264316082,-12.399862289428711,-0.02253148704767227,12.382774353027344,-2.454667568206787,-0.06664291024208069,0.0679411068558693,-0.030470941215753555,0.04704770818352699,12.468212127685547,0.20126357674598694,-12.450785636901855,12.377301216125488,11.890376091003418,0.03989154472947121,0.06786195933818817,0.02305278554558754,12.335350036621094,-0.03865835443139076,12.450456619262695,0.015080396085977554,0.06964438408613205,12.377128601074219,-12.394372940063477,12.460772514343262,12.358173370361328,12.339831352233887,12.430610656738281,-0.027530578896403313,-0.03189033642411232,-12.397455215454102,0.06993580609560013,-12.448482513427734,-12.410299301147461,12.367844581604004,-0.07569480687379837,10.502408027648926,14.512720108032227,-0.06764167547225952,13.701107025146484,-0.3328133821487427,12.421968460083008,12.572976112365723,-2.4594767093658447,22.325969696044922,13.030658721923828,12.507482528686523,12.900218963623047,0.06356190890073776,-12.361398696899414,-14.002494812011719,9.427565574645996,-14.602520942687988,-24.998987197875977,0.11377472430467606,0.023753948509693146,0.05388348922133446,0.46861961483955383,0.04956004396080971,-0.005095936357975006,0.02375078573822975,0.04174940288066864,-0.07700255513191223,-0.4126785695552826,-0.03054412081837654,-0.006711040623486042,-0.07647543400526047,0.03265921398997307,-0.037827253341674805,-0.0949217677116394,0.0325542613863945,0.09818137437105179,-0.6198514103889465,0.03959375247359276,0.026824980974197388,0.05923357978463173,0.05012824758887291,9.369254112243652,-0.059911634773015976,9.333664894104004,0.05983979254961014,-0.04404911771416664,-0.0355551652610302,-9.35966968536377,9.509932518005371,9.411581993103027,9.467233657836914,9.408028602600098,-0.07820479571819305,0.03043801710009575,-8.456247329711914,0.06158512458205223,-9.50601863861084,-9.472423553466797,-0.033650945872068405,-0.03256978467106819,0.036112744361162186,-0.010500116273760796,0.021906083449721336,0.06471065431833267,-0.002777296118438244,-0.05312700569629669,-0.05071844160556793,-0.01918509602546692,-0.05083991587162018,0.05370619520545006,0.05764845386147499,-0.03524915501475334,-0.03731360286474228,-0.00394235597923398,0.04562107101082802,0.0517769418656826,0.02520606480538845,0.07559603452682495,1.2739806175231934,-0.03737647831439972,-0.06856753677129745,5.735517978668213,0.028673384338617325,-0.052335500717163086,-0.026562662795186043,0.12124980986118317,0.0023397800978273153,-4.8639678955078125,0.020229684188961983,0.025684772059321404,-0.0117653151974082,-0.025464458391070366,-0.020288703963160515,-0.2673187255859375,0.038617514073848724,1.4422872066497803,-5.825303077697754,-0.0854482501745224,0.03733929619193077,-0.03206371143460274,0.01068404782563448,0.031063972041010857,-0.056582074612379074,-0.019796334207057953,0.05512095242738724,-0.05463751405477524,-0.04560118168592453,0.04216157644987106,-0.02310110069811344,0.042922068387269974,-0.01794719137251377,-0.03349190950393677,0.02022184245288372,-0.010866302996873856,-0.024838268756866455,0.0365070104598999,0.053834035992622375,0.01786739192903042,0.008154784329235554,-0.06631742417812347,-0.0699298232793808,-0.09037335216999054,0.07283512502908707,0.026818135753273964,-0.007336617447435856,0.02817792072892189,0.061953477561473846,0.08026829361915588,0.05790762975811958,-0.06929943710565567,-0.04689886420965195,0.06868215650320053,0.055849168449640274,0.04786381125450134,-0.050595950335264206,-0.02886030450463295,0.15781839191913605,0.03675558790564537,0.2871546447277069,0.04413856193423271,0.016708724200725555,1.7244148254394531,0.057249248027801514,-0.034404218196868896,-0.03888237103819847,-0.005233831238001585,0.060920655727386475,-1.4473111629486084,0.010849838145077229,-0.046270355582237244,0.0017459451919421554,-0.016420960426330566,0.03783518448472023,-0.13861994445323944,-0.07028785347938538,0.4068969786167145,-1.6642534732818604,0.05049749091267586,-12.384778022766113,-0.030273664742708206,-1.175339698791504,-12.469897270202637,0.034596629440784454,-0.001270878128707409,-0.018068449571728706,-12.023914337158203,-0.030052626505494118,12.453413009643555,-1.0030689239501953,0.0016871632542461157,-0.02498261258006096,-0.006335089914500713,0.0626944899559021,12.416528701782227,0.15494920313358307,-12.34774112701416,12.357084274291992,9.816027641296387,11.335394859313965,0.049475885927677155,-0.005301924888044596,12.284083366394043,-0.07059865444898605,0.04934900626540184,-0.021592801436781883,1.3062107563018799,0.03564969822764397,-12.381093978881836,-0.0210062675178051,-0.024577507749199867,-0.03126783296465874,0.024333592504262924,0.025563394650816917,-4.416965007781982,-0.025064095854759216,11.538907051086426,-12.410433769226074,-0.5289516448974609,7.007370948791504,-0.05858316272497177,0.033714327961206436,11.9295015335083,-0.0049082436598837376,0.023925473913550377,0.06326703727245331,0.45456892251968384,-0.05335256829857826,-11.739779472351074,-0.06568146497011185,0.03977116197347641,-0.0767832025885582,0.029059499502182007,0.04680979251861572,-1.5525354146957397,-0.06437136977910995,7.8533124923706055,-11.98394775390625,-0.11601583659648895]},"inputBias":{"rows":20,"columns":1,"weights":[-12.401100158691406,-0.000023204489480121993,-3.0744235515594482,0.02025642991065979,-0.000004363962943898514,0.44482555985450745,-0.004247136879712343,1.473638653755188,12.368171691894531,9.031126022338867,0.0014331693528220057,0.22138412296772003,0.000028265189030207694,0.025529401376843452,-8.025499482755549e-7,-0.0003299586533103138,0.007235909812152386,-12.174378395080566,1.0056431293487549,0.23819734156131744]},"forgetMatrix":{"rows":20,"columns":1,"weights":[-0.018109865486621857,-0.032974064350128174,-0.515056848526001,12.34489631652832,-0.05078757554292679,0.0003631352446973324,-0.34578147530555725,-12.348034858703613,12.336698532104492,0.730963408946991,12.48122787475586,0.02451281249523163,12.472552299499512,0.06102101877331734,0.012172069400548935,-12.40056037902832,0.7387141585350037,-0.2780880630016327,12.305770874023438,10.827210426330566]},"forgetHidden":{"rows":20,"columns":20,"weights":[-12.384763717651367,0.0037868765648454428,-9.425895690917969,-3.4085302352905273,-0.04210929200053215,-0.8160940408706665,0.17528003454208374,-12.450019836425781,-0.020612508058547974,4.109344482421875,-8.368643760681152,-0.31540751457214355,0.06761042773723602,-0.36413460969924927,-0.03804831951856613,12.475472450256348,1.0297263860702515,-12.337484359741211,3.4437172412872314,12.427127838134766,0.037197526544332504,-0.03285769745707512,0.014444587752223015,-0.012500927783548832,-0.012516086921095848,0.01550546195358038,0.029422536492347717,0.0007314630784094334,-0.013926147483289242,-0.02064468525350094,-0.06515934318304062,-0.04848868027329445,-0.03296011686325073,-0.06904496997594833,0.021057195961475372,0.01983664557337761,0.028218476101756096,-0.022751223295927048,0.05691247433423996,0.03400144726037979,0.02403140254318714,0.017489030957221985,-0.0017010836163535714,0.06407346576452255,-0.03783370181918144,-0.008459850214421749,-0.04641525447368622,0.0763956755399704,-0.011122448369860649,-0.01043179165571928,-0.07654615491628647,0.030757248401641846,0.02652575448155403,-0.06151615083217621,-0.06228390708565712,-0.027339838445186615,0.042497094720602036,0.0008162619196809828,0.056787777692079544,0.06069916486740112,3.357281446456909,-0.0560079962015152,-0.03210210055112839,10.06442928314209,-0.02497420832514763,-0.009057989344000816,0.0673542395234108,0.1983371376991272,0.036547254770994186,-9.388758659362793,0.0733947902917862,-0.05375249683856964,-0.058105286210775375,-0.006586948875337839,-0.04281066730618477,-0.5676053166389465,-0.050950635224580765,4.035269260406494,-10.110332489013672,-0.0537603460252285,0.07422519475221634,-0.005512915086001158,0.0680151879787445,0.04691845178604126,0.07455842941999435,-0.056070808321237564,-0.0304302666336298,0.0635346993803978,-0.03252093866467476,0.05754533410072327,0.03400323539972305,0.07762008905410767,-0.017268117517232895,-0.057934097945690155,0.04228942096233368,-0.03231458738446236,-0.021741975098848343,0.0035686299670487642,-0.019517723470926285,-0.024178212508559227,-0.07809628546237946,0.019553624093532562,0.0015379056567326188,-3.818826198577881,0.011363270692527294,-4.456065654754639,0.021819191053509712,-12.424691200256348,-3.757333993911743,3.845226526260376,-3.7702131271362305,-3.86004638671875,-3.7847328186035156,-3.7489731311798096,0.005197386723011732,-0.04691726714372635,3.7392661571502686,0.06356488913297653,3.8194806575775146,3.877222776412964,0.037250619381666183,-0.028159333392977715,-0.05077236518263817,-0.03836505115032196,0.006019539665430784,0.04601021111011505,0.013938731513917446,0.012453882023692131,0.021146588027477264,0.02643531933426857,0.009415020234882832,0.014329638332128525,0.02010403387248516,-0.04864630848169327,0.053316880017519,-0.03344082832336426,0.03394962474703789,0.009423145093023777,-0.052951227873563766,-0.014284636825323105,-0.7653852701187134,0.04279213771224022,0.06759495288133621,-3.868577480316162,-0.028984487056732178,0.054403018206357956,-0.057863276451826096,-0.045986469835042953,-0.016665050759911537,3.1616475582122803,-0.012291166000068188,0.056456588208675385,0.07805602252483368,0.06520035862922668,0.02863178960978985,0.15588854253292084,-0.028638679534196854,-1.0318893194198608,3.973212242126465,-0.03218952938914299,-0.01002747006714344,-0.0723499059677124,0.033740151673555374,0.4295083284378052,0.02639836072921753,0.3935560882091522,0.06829526275396347,-0.03895121067762375,0.49882861971855164,-0.401243656873703,0.40282317996025085,0.4228367209434509,0.42972633242607117,0.3981306850910187,0.045416831970214844,0.022958045825362206,-0.48460909724235535,0.037694185972213745,-0.447498083114624,-0.5248446464538574,12.357195854187012,0.012940340675413609,0.399012953042984,12.36737060546875,0.07789172232151031,0.0929294303059578,-0.06736384332180023,8.270523071289062,0.04614961892366409,-12.325437545776367,0.1770147830247879,-0.045436058193445206,0.04202444851398468,-0.01566435769200325,-0.012838545255362988,-11.778942108154297,-0.043714169412851334,12.355125427246094,-12.330492973327637,-3.8703436851501465,0.011371899396181107,0.07781217247247696,-0.06014034524559975,10.650611877441406,-0.06106017157435417,10.713881492614746,-0.07702374458312988,-0.06740652769804001,0.0750860869884491,-10.726556777954102,10.754680633544922,10.634078025817871,10.729125022888184,10.68211555480957,0.04544536769390106,-0.07340499758720398,-9.970746040344238,0.040873054414987564,-10.634162902832031,-10.66970443725586,-0.025374257937073708,-0.05094451457262039,-0.022836623713374138,0.6840956211090088,-0.06041795015335083,0.5589728951454163,-0.0347771942615509,-12.464895248413086,12.408937454223633,-0.5705006122589111,0.661986768245697,0.6479247212409973,0.5906409621238708,0.5684651136398315,-0.06288935244083405,0.0726916715502739,-0.8360063433647156,-0.05627812445163727,-0.629306435585022,-0.6269558072090149,-0.07045941054821014,-0.0037654235493391752,0.07017602026462555,3.5223753452301025,0.02798077091574669,3.446638822555542,0.04442066326737404,-0.061944782733917236,-0.029014762490987778,-3.5958826541900635,3.5484261512756348,3.5733883380889893,3.5787436962127686,3.4689009189605713,0.04687684774398804,0.00014987567556090653,-2.8106603622436523,-0.01704510860145092,-3.459606170654297,-3.4949119091033936,0.06258335709571838,0.008828663267195225,0.0497613362967968,4.852961540222168,0.07140079140663147,4.905318260192871,0.017018718644976616,-10.959497451782227,0.07627751678228378,-4.8704962730407715,4.778326034545898,4.821170806884766,4.882553577423096,4.77060079574585,-0.07529646158218384,0.03385882079601288,-6.083773612976074,-0.012744189240038395,-4.821650505065918,-4.915131568908691,-0.06690747290849686,-0.04448195919394493,-0.03827812522649765,-0.01075597945600748,-0.02910035103559494,-0.06284620612859726,-0.036666229367256165,-0.04024839028716087,-0.06540617346763611,-0.05145855247974396,0.031058741733431816,-0.023795654997229576,0.06821347028017044,-0.05915995314717293,-0.058596670627593994,0.0009560511098243296,0.008047793060541153,-0.002755652880296111,0.06323082000017166,0.05181233957409859,-8.714737892150879,-0.033942993730306625,0.06029379740357399,-12.217731475830078,0.0724128857254982,0.029953820630908012,-0.034150268882513046,-0.509878396987915,-0.05219540372490883,12.111247062683105,-0.07268887013196945,0.010173650458455086,-0.07113049179315567,-0.05234839767217636,-0.00892421044409275,2.103562116622925,-0.03183836117386818,-9.504546165466309,12.184615135192871,0.24269892275333405,0.050118617713451385,0.05560857802629471,0.01626080833375454,12.391775131225586,-0.055767640471458435,12.378068923950195,0.06622293591499329,-0.3427587151527405,0.02167748473584652,-12.330313682556152,12.465062141418457,12.42088794708252,12.476489067077637,12.3894681930542,-0.026530563831329346,0.031487539410591125,-12.326269149780273,-0.051584407687187195,-12.43164348602295,-12.472914695739746,-12.438050270080566,0.07276610285043716,-0.7592449188232422,-12.417413711547852,0.008235534653067589,-0.08641836792230606,0.08414183557033539,-11.344472885131836,-0.027741117402911186,12.365137100219727,-0.6091964244842529,-0.08986122906208038,0.019552994519472122,0.0032169953919947147,-0.05844099819660187,12.252120018005371,0.07001481205224991,-12.413579940795898,12.381828308105469,7.581396102905273,0.19577091932296753,-0.05161970481276512,-0.010841338895261288,0.8194066286087036,-0.012425646185874939,0.015180245041847229,-0.06789789348840714,-0.05988756939768791,0.02455103024840355,-0.6527208089828491,0.05485672131180763,0.06068539619445801,-0.07192060351371765,-0.02575870230793953,0.07256084680557251,-0.02058280259370804,0.07464894652366638,0.17009186744689941,-0.8481888771057129,0.04970400407910347,0.07820335030555725,-0.017376046627759933,-0.008059438318014145,0.027803732082247734,-0.061980780214071274,0.05946913734078407,0.018281657248735428,0.012155571021139622,-0.06141141802072525,-0.046458009630441666,0.031038038432598114,0.044525373727083206,0.013511860743165016,0.07099833339452744,0.03694973140954971,0.0500730499625206,0.0571909137070179,0.06972895562648773,-0.17329466342926025,-0.07348006218671799]},"forgetBias":{"rows":20,"columns":1,"weights":[0,0,0,0,0,0,0,0,0,0,0,0,0,0,0,0,0,0,0,0]},"outputMatrix":{"rows":20,"columns":1,"weights":[-0.8269481062889099,-5.352889537811279,-12.364140510559082,12.457791328430176,-1.5345131158828735,12.337824821472168,-0.08663590252399445,-0.1066703200340271,0.03497001901268959,6.582609176635742,10.726383209228516,12.331905364990234,6.6975016593933105,12.352819442749023,-12.408101081848145,-0.06315260380506516,12.384109497070312,-0.01124513614922762,10.675057411193848,0.24442128837108612]},"outputHidden":{"rows":20,"columns":20,"weights":[-12.322023391723633,0.00891908910125494,-0.34422147274017334,-12.43990707397461,0.04880919307470322,-0.08503393083810806,-0.06993719190359116,-8.185789108276367,0.010872388258576393,12.360508918762207,-0.26479774713516235,-0.053277451545000076,-0.02118278481066227,0.013071602210402489,-0.019168345257639885,11.761321067810059,0.0909331664443016,-12.425223350524902,12.323687553405762,3.8854079246520996,0.012167192064225674,-0.029213907197117805,0.061618905514478683,-0.009039965458214283,-0.031177585944533348,-0.04678880423307419,-0.05046067759394646,-0.07304712384939194,0.07433397322893143,0.09766215831041336,0.02745099924504757,-0.04334254190325737,0.065889872610569,0.017632728442549706,-0.042672812938690186,-0.06145527958869934,0.044058430939912796,-0.0212467722594738,0.08396938443183899,-0.006470006890594959,-0.4864344596862793,-0.048638734966516495,0.017434997484087944,-1.9914324283599854,0.012488532811403275,0.07302301377058029,-0.04414216801524162,-0.0766138806939125,-0.009704208001494408,1.5939676761627197,-0.03584286943078041,0.00496907252818346,0.06614232063293457,-0.011472895741462708,0.07021687924861908,0.02057265117764473,-0.05629416182637215,-0.4915851354598999,2.0286664962768555,-0.012929026037454605,0.2072683572769165,0.007778505329042673,0.011010080575942993,0.9421256184577942,0.06400229036808014,-0.06215513497591019,-0.03316490724682808,-0.04335211589932442,0.025714684277772903,-0.7482262849807739,0.07749131321907043,0.015748674049973488,-0.019665736705064774,-0.04733430594205856,0.021484026685357094,-0.0008704842766746879,0.05236152186989784,0.17495593428611755,-0.8933249115943909,-0.07200770080089569,-0.07787490636110306,-0.01341284066438675,-0.0702470913529396,0.010742438957095146,-0.014976254664361477,-0.010724677704274654,0.06430305540561676,-0.036998916417360306,0.0075583490543067455,0.05911767855286598,0.03714046627283096,0.034810081124305725,-0.021047314628958702,-0.053635675460100174,0.051645681262016296,0.03071698546409607,-0.0735262930393219,-0.060513418167829514,0.023268885910511017,0.015379366464912891,1.2118929624557495,-0.07500970363616943,-0.057983603328466415,5.594196796417236,-0.052859555929899216,-0.016322391107678413,-0.010815877467393875,0.05979263409972191,-0.07128757238388062,-4.59529972076416,-0.05936979502439499,-0.023998215794563293,0.0570429228246212,0.041974034160375595,-0.005146457348018885,-0.289573609828949,-0.026728805154561996,1.4868100881576538,-5.675268650054932,-0.05798984691500664,-0.028416844084858894,-0.06537991762161255,-0.0012146482476964593,0.02531946823000908,0.024920588359236717,-0.002180842449888587,0.023806076496839523,0.04966253042221069,0.07384280115365982,-0.056322403252124786,0.0528712198138237,-0.0008189265499822795,-0.047611504793167114,-0.06250719726085663,0.06515007466077805,0.04470907524228096,0.0776667669415474,0.02478191629052162,-0.03823889419436455,0.06317923218011856,-12.367816925048828,-0.012480249628424644,-3.383702516555786,-12.388517379760742,-0.045797742903232574,-0.22947965562343597,-0.019023049622774124,-12.297075271606445,-0.045132607221603394,12.342582702636719,-2.6191797256469727,-0.03528774157166481,0.006911652162671089,-0.0449003167450428,0.004498166963458061,12.39748764038086,0.24301502108573914,-12.438236236572266,12.327754020690918,11.875946044921875,-0.060349319130182266,0.030080178752541542,0.07604343444108963,3.654242515563965,0.06562536209821701,3.6051623821258545,0.04939093068242073,-0.07407920807600021,3.8350024223327637,-3.5797085762023926,3.631108045578003,3.6490607261657715,3.6591925621032715,3.560513973236084,0.06390158832073212,0.06553231179714203,-3.6256139278411865,-0.016451368108391762,-3.5507636070251465,-3.6053380966186523,11.518209457397461,-0.02435426041483879,-0.01360982283949852,12.31564712524414,-0.0533430241048336,0.02360338531434536,0.02436368726193905,1.4318770170211792,0.030825486406683922,-12.304215431213379,0.05895081162452698,0.0002525588497519493,0.013347486965358257,0.028132138773798943,0.00037388448254205287,-4.794647216796875,-0.06836353242397308,11.684126853942871,-12.340009689331055,-0.571268618106842,10.232354164123535,0.037229958921670914,-0.009226785972714424,12.277815818786621,0.057771243155002594,-0.07027372717857361,-0.04042289778590202,0.8876979947090149,-0.045442305505275726,-12.174551963806152,0.02691882848739624,0.05120152607560158,-0.05421857908368111,-0.060241710394620895,-0.06024165451526642,-3.0030651092529297,-0.023311439901590347,10.782635688781738,-12.271100997924805,-0.3885396718978882,1.9186570644378662,0.033465445041656494,0.06874311715364456,7.44930362701416,0.06420675665140152,-0.008935033343732357,-0.01514879334717989,0.1191987469792366,0.024201402440667152,-6.358542442321777,-0.01579812727868557,0.06299770623445511,-0.015780195593833923,0.02972470223903656,-0.017812516540288925,-0.2976769208908081,-0.06676807999610901,2.1617794036865234,-7.392040729522705,-0.020931288599967957,0.02004665695130825,-0.03230338543653488,0.03875038027763367,0.07688098400831223,0.026456719264388084,0.06036723777651787,-0.058794666081666946,0.02548554725944996,-0.07427948713302612,-0.0719752237200737,-0.019931163638830185,-0.05341752618551254,0.011011071503162384,-0.012252571992576122,0.022681601345539093,-0.015620016492903233,-0.04311712086200714,-0.0018087391508743167,-0.07359551638364792,-0.030404042452573776,1.4078794717788696,-0.02901582233607769,-0.069219209253788,6.179146766662598,-0.06772340834140778,0.03427525609731674,-0.06427772343158722,0.13388709723949432,0.019977381452918053,-5.292409420013428,0.07359090447425842,0.043873097747564316,0.05718061327934265,0.0368230864405632,0.0675201416015625,-0.2750590145587921,-0.051552362740039825,1.6346461772918701,-6.254334449768066,-0.08480831235647202,-0.13137497007846832,0.005919066723436117,-0.05289318412542343,-0.4786131680011749,0.02586940862238407,-0.03382829204201698,-0.04715348035097122,-0.04220912978053093,0.03694166615605354,0.4713585376739502,-0.07090915739536285,0.06194169074296951,-0.074138343334198,0.06315607577562332,0.00604186812415719,0.08982817083597183,-0.049841977655887604,-0.09059109538793564,0.5959087014198303,-0.042309634387493134,-12.331704139709473,0.07722855359315872,-4.275644779205322,-11.209633827209473,-0.03236634284257889,-0.24942106008529663,0.0782446563243866,-12.39922046661377,-0.043663639575242996,12.405299186706543,-3.450197696685791,-0.1278875172138214,0.07668159157037735,-0.028111444786190987,-0.08826375752687454,12.388742446899414,0.3833371698856354,-12.346687316894531,11.191339492797852,12.147878646850586,0.3307318389415741,0.014471177011728287,-0.03895018249750137,1.209747076034546,-0.0011472302721813321,-0.0560421384871006,-0.0024683759547770023,-0.021021094173192978,-0.059443261474370956,-0.9781288504600525,-0.007914130575954914,-0.07235245406627655,0.018666483461856842,0.050034090876579285,-0.06157976761460304,0.0003496713761705905,0.07595940679311752,0.2604422867298126,-1.3386858701705933,-0.03566324710845947,-7.784750461578369,0.0651683658361435,-11.571953773498535,-1.3162754774093628,0.021321404725313187,-1.851109266281128,0.406199187040329,-12.397414207458496,0.07516517490148544,1.5414824485778809,-11.1415376663208,-0.7254354357719421,-0.03881055489182472,-0.7032181024551392,-0.06615181267261505,12.324714660644531,2.413422107696533,-5.890454292297363,1.2897953987121582,12.33674430847168,10.353788375854492,0.02260369248688221,0.0035570606123656034,12.237015724182129,0.023091783747076988,-0.0572071298956871,-0.07310307025909424,0.8228193521499634,-0.04997244104743004,-12.283720016479492,0.0628722608089447,0.04892110452055931,0.0449945293366909,-0.043262384831905365,0.009855212643742561,-3.221592664718628,0.011659127660095692,10.877445220947266,-12.232348442077637,-0.28825777769088745,12.365649223327637,0.013124040327966213,0.8684484362602234,12.461202621459961,-0.00016576738562434912,0.020872823894023895,-0.06893353909254074,11.565024375915527,0.02138853631913662,-12.324460983276367,0.7104796171188354,-0.04383406788110733,-0.06447963416576385,0.027694594115018845,-0.06678501516580582,-12.266115188598633,-0.08148980885744095,12.447154998779297,-12.419463157653809,-8.415322303771973]},"outputBias":{"rows":20,"columns":1,"weights":[-6.308694362640381,-0.00002314931043656543,-0.003959328401833773,0.0013586195418611169,-0.00000436497157352278,0.023152735084295273,-4.3284629214213055e-7,-0.0010092874290421605,12.398416519165039,0.9758292436599731,0.6424272656440735,0.02599017322063446,0.000028256283258087933,0.02735036611557007,-0.0011909460881724954,-12.385945320129395,0.0055436138063669205,-12.401042938232422,0.5268568396568298,11.549520492553711]},"cellActivationMatrix":{"rows":20,"columns":1,"weights":[0.07217632234096527,-0.05681658908724785,-8.85059928894043,0.28857773542404175,0.07349929958581924,0.059506844729185104,12.396903991699219,-0.0009189998963847756,3.1540725231170654,-0.07013110816478729,12.406128883361816,8.590424537658691,12.4361572265625,12.402119636535645,0.04757951200008392,12.337116241455078,-12.45116138458252,-11.728407859802246,-0.06928481161594391,-0.059236180037260056]},"cellActivationHidden":{"rows":20,"columns":20,"weights":[0.038182687014341354,-0.01930796168744564,0.025284819304943085,0.05712902918457985,-0.046782977879047394,0.006296071223914623,0.03299891948699951,0.05168343335390091,0.053728651255369186,-0.06611096113920212,-0.03162980079650879,0.06319668143987656,0.006585582625120878,-0.07604990899562836,0.005018614232540131,0.019453546032309532,0.06648976355791092,-0.013007545843720436,0.04090579226613045,0.005715545266866684,0.043187133967876434,0.006582505069673061,0.06937088817358017,0.07281109690666199,0.04322892799973488,0.03747398406267166,-0.033585939556360245,-0.003077690489590168,0.07328681647777557,0.052066970616579056,0.024194523692131042,0.042653266340494156,0.02678624354302883,-0.0004010140837635845,0.04115156829357147,0.07309002429246902,-0.07367797195911407,-0.07675307244062424,-0.06603550910949707,-0.005484261550009251,-11.03711223602295,0.07820796966552734,-0.018220195546746254,-12.407369613647461,-0.06632164120674133,0.0436280220746994,-0.04593561589717865,-1.1765516996383667,0.05625216290354729,12.35461139678955,-0.062158506363630295,0.01631598174571991,-0.039642333984375,0.0518842414021492,-0.061222728341817856,4.072357654571533,0.004999457858502865,-11.397590637207031,12.350786209106445,0.5157627463340759,12.346745491027832,-0.004857407417148352,0.9718637466430664,12.354612350463867,-0.06498760730028152,0.02227151393890381,0.005839536432176828,11.553173065185547,-0.012353630736470222,-12.415245056152344,0.813951313495636,-0.052764587104320526,-0.0297979936003685,-0.00804574228823185,-0.04383806511759758,-12.373507499694824,-0.030587829649448395,12.347745895385742,-12.343990325927734,-8.766161918640137,-0.02698916755616665,0.03701943904161453,-0.0011244149645790458,-0.06466115266084671,-0.04862025007605553,-0.029170256108045578,0.052337974309921265,0.07685807347297668,0.040619682520627975,0.05461445078253746,0.005191068165004253,-0.04860352352261543,-0.005530220456421375,0.029820822179317474,0.04127489775419235,0.004938352387398481,-0.0638783872127533,0.04020581394433975,-0.042732566595077515,-0.0397983081638813,0.026698870584368706,0.021121788769960403,0.013446575962007046,0.05637422949075699,-0.011676055379211903,0.040389399975538254,-0.06980318576097488,0.03620559722185135,-0.0112406425178051,0.032437555491924286,-0.02523414045572281,0.0704708993434906,0.0555509515106678,0.006379999220371246,0.00822671502828598,0.030590562149882317,0.06804810464382172,-0.006108974106609821,-0.04137616232037544,-0.0017919950187206268,0.595004677772522,-0.03387598320841789,-0.060659363865852356,2.9014828205108643,-0.041744574904441833,0.06250862032175064,0.01594560407102108,0.005748427473008633,-0.007736105006188154,-2.334469795227051,-0.004909554496407509,0.04051792249083519,-0.0006946140783838928,0.04560423269867897,-0.0075341383926570415,-0.06841816753149033,-0.06741337478160858,0.669536828994751,-2.8853275775909424,-0.05096733570098877,-1.0944745540618896,0.01575663685798645,-12.367938041687012,-0.11797745525836945,-0.041435085237026215,-8.570890426635742,2.781641960144043,-12.327345848083496,0.029594946652650833,0.15775077044963837,-12.380617141723633,-4.099434852600098,-0.016362283378839493,-4.120373249053955,-0.9877957701683044,7.278652191162109,9.717469215393066,-0.8958874344825745,0.21598123013973236,12.46998119354248,0.02514183707535267,0.003047446021810174,-0.002891331911087036,12.38760757446289,-0.07350476831197739,12.437776565551758,0.057284384965896606,-0.059225019067525864,12.342120170593262,-12.418952941894531,12.387717247009277,12.42756175994873,12.436722755432129,12.437057495117188,-0.07289648056030273,-0.06429564207792282,-12.371248245239258,-0.02859373576939106,-12.446687698364258,-12.369806289672852,0.053926438093185425,0.028531717136502266,-0.07127432525157928,-0.042825743556022644,0.07492200285196304,0.05053727328777313,-0.02446575090289116,0.010948092676699162,-0.07647652179002762,0.033080022782087326,-0.006909714080393314,0.010554837994277477,-0.020678211003541946,-0.006149475462734699,-0.0483349934220314,-0.03701460734009743,-0.01351767498999834,0.04440790042281151,-0.004969712812453508,-0.0012349027674645185,6.602067947387695,-0.04911888390779495,0.00968867726624012,11.813411712646484,0.04317903518676758,-0.06358523666858673,0.060263004153966904,0.3094807267189026,0.07771427929401398,-11.583308219909668,0.038145534694194794,0.00037181630614213645,-0.05323445051908493,-0.02077322266995907,-0.07595164328813553,-1.3570404052734375,-0.010217314586043358,7.333581924438477,-11.876182556152344,-0.1920650452375412,0.05785041302442551,0.04249011352658272,-0.03908964619040489,0.06514448672533035,0.0728520005941391,0.04273094981908798,0.017981326207518578,-0.042919985949993134,0.0004043941153213382,-0.03976079076528549,0.007472266908735037,0.06609082221984863,0.032668739557266235,-0.05345531925559044,-0.07279763370752335,0.06956332176923752,0.06373833864927292,-0.03601957485079765,-0.08571572601795197,0.05659991875290871,0.03790798783302307,-0.06968984752893448,-0.05461108684539795,11.907031059265137,0.004116817377507687,11.766714096069336,-0.053843215107917786,-0.053925883024930954,0.06002004072070122,-11.861770629882812,11.795677185058594,11.842158317565918,11.820594787597656,11.889575958251953,-0.045116983354091644,0.06343735009431839,-11.472539901733398,-0.07768754661083221,-11.77471923828125,-11.794082641601562,5.949163913726807,0.05027913674712181,0.06351610273122787,11.694167137145996,-0.07400304079055786,0.053150612860918045,0.046878572553396225,0.2946787476539612,0.04798451066017151,-11.280844688415527,-0.023030320182442665,-0.0666080042719841,0.03041180968284607,-0.031905047595500946,0.05508347228169441,-1.253793716430664,-0.008970090188086033,6.5772786140441895,-11.564364433288574,-0.2073270082473755,-0.008071618154644966,0.024898014962673187,-0.014215529896318913,-0.06718239188194275,0.007692435290664434,-0.04481613636016846,0.07332148402929306,0.03679391369223595,0.019777994602918625,-0.0034579953644424677,0.04506943002343178,0.0025119909550994635,0.06092267856001854,-0.06078200787305832,0.044765304774045944,0.04949257895350456,-0.07490897923707962,-0.01094550546258688,0.0680868998169899,-0.0324457548558712,0.22387798130512238,0.05414830520749092,0.051266804337501526,0.7586211562156677,0.026240061968564987,0.06588554382324219,-0.06549712270498276,-0.05434570461511612,0.04580448567867279,-0.643372654914856,-0.031287699937820435,0.04792805388569832,0.0038876861799508333,-0.06335736811161041,-0.05560318008065224,-0.025665467604994774,-0.02743043750524521,0.1410161852836609,-0.8283477425575256,-0.027356771752238274,-0.07112014293670654,0.06974378228187561,-0.07222887128591537,-6.091564655303955,-0.04630281776189804,-6.028995037078857,0.008896321058273315,0.05154373496770859,-0.01405460573732853,6.159534454345703,-6.225312232971191,-6.14122200012207,-6.221923828125,-6.208653450012207,-0.058302611112594604,0.07774341106414795,5.173946857452393,0.05954974144697189,6.161499977111816,6.157227993011475,0.010730981826782227,-0.0015144048957154155,-0.033735908567905426,-0.133811354637146,-0.055050384253263474,-0.028642641380429268,-0.05422314628958702,-0.029685987159609795,0.059381477534770966,0.11925428360700607,0.0493079349398613,-0.032371122390031815,-0.0004248390905559063,0.028271418064832687,0.002900282619521022,0.07938152551651001,0.013261452317237854,0.004918504040688276,0.13465352356433868,0.004418668802827597,-0.012766961939632893,-0.026651544496417046,-0.07475186884403229,-0.004792061168700457,0.003921582829207182,-0.07730309665203094,-0.06660465151071548,-0.059049032628536224,-0.06272842735052109,0.07169231027364731,-0.036750826984643936,0.06380944699048996,-0.04582426697015762,-0.05075116455554962,0.058159004896879196,0.015049351379275322,0.053922154009342194,-0.07530380040407181,-0.07773436605930328,-0.04012855514883995,-0.06236915662884712,-0.07611612230539322,0.007304395083338022,0.05261692777276039,-0.019072871655225754,0.03568938374519348,0.012765510939061642,0.030999386683106422,0.05622139573097229,-0.021377786993980408,-0.07469957321882248,-0.06531277298927307,0.04299819469451904,0.050939418375492096,-0.0405607633292675,0.03957736864686012,0.06782317161560059,0.04558674991130829,-0.03351016342639923,-0.021320685744285583]},"cellActivationBias":{"rows":20,"columns":1,"weights":[0,0,-0.3500215411186218,11.084883689880371,0,0,0.008511926978826523,-12.401165008544922,10.16801929473877,0,0.22909429669380188,0.000041255429096054286,0.4238314926624298,0.1323428601026535,0,0.001285929698497057,0,-0.00023924476408865303,0,0]}}],"outputConnector":{"rows":1,"columns":20,"weights":[-0.012828112579882145,-0.5806999802589417,12.32432746887207,-13.103402137756348,0.19536910951137543,-4.167888164520264,-12.31623649597168,-0.05530773475766182,-13.09998893737793,13.118839263916016,-0.7218270301818848,-0.7040061950683594,-12.39902400970459,-0.7161657214164734,11.753284454345703,-0.15958404541015625,0.7336615324020386,-0.0067814248614013195,13.12613296508789,11.099764823913574]},"output":{"rows":1,"columns":1,"weights":[273.9787292480469]},"inputLookup":null,"inputLookupLength":0,"outputLookup":null,"outputLookupLength":0}