{"type":"LSTMTimeStep","options":{"inputSize":1,"inputRange":0,"hiddenLayers":[20],"outputSize":1,"decayRate":0.999,"smoothEps":1e-8,"regc":0.000001,"clipval":5,"maxPredictionLength":100,"dataFormatter":{"indexTable":{},"characterTable":{},"characters":[],"specialIndexes":[]}},"hiddenLayers":[{"inputMatrix":{"rows":20,"columns":1,"weights":[-0.05020460486412048,-0.06158551573753357,-0.05563167482614517,-0.07510904222726822,-0.07145652174949646,-0.062024448066949844,0.07711300253868103,0.037489257752895355,0.06177506968379021,0.06987180560827255,-1.9586917161941528,-0.008471968583762646,0.07743707299232483,-0.06543570011854172,8.061446189880371,0.04800516366958618,0.1365426778793335,0.050877951085567474,-0.05914202705025673,0.06759200245141983]},"inputHidden":{"rows":20,"columns":20,"weights":[-0.03320158272981644,-0.017436770722270012,-0.043947238475084305,0.013915049843490124,-0.030056573450565338,-0.013446606695652008,-0.026173951104283333,0.026712309569120407,-0.006435060873627663,0.0003380614798516035,-0.006256632041186094,0.048006534576416016,0.04504132270812988,-0.04349454492330551,-0.024521689862012863,-0.013908720575273037,-0.008799359202384949,0.01876518689095974,0.06116921082139015,0.02811223827302456,-0.06233261525630951,-0.029066698625683784,0.045404233038425446,0.06360246986150742,-0.025762325152754784,-0.0500553660094738,0.024907680228352547,-0.04391920566558838,-0.06100562959909439,-0.008072425611317158,0.054466474801301956,0.05759180709719658,-0.05669077858328819,-0.03685927763581276,-0.01586517132818699,-0.06976913660764694,-0.0600554384291172,0.06251870095729828,-0.04484030231833458,0.014432626776397228,-0.07191348075866699,0.016764599829912186,0.07180304080247879,0.023577088490128517,0.03948809579014778,0.00733767356723547,-0.043049346655607224,-0.009392520412802696,-0.07027622312307358,-0.04279746487736702,-0.016438648104667664,-0.017154783010482788,0.039371464401483536,-0.033188626170158386,0.07051534205675125,-0.006793517619371414,-0.011226051487028599,-0.04837355390191078,-0.017927980050444603,-0.03737976774573326,-0.03167582303285599,-0.0039037265814840794,0.0702984556555748,0.0018397122621536255,-0.03499211370944977,-0.07590160518884659,0.013824832625687122,-0.019596515223383904,0.032094329595565796,0.030904680490493774,-0.03201313689351082,0.02662162110209465,-0.021878181025385857,-0.06123482808470726,0.039175476878881454,-0.0721680298447609,0.042272042483091354,0.04839207977056503,0.06588629633188248,-0.06474877148866653,0.02237636223435402,0.018626898527145386,0.07166343182325363,-0.07455991208553314,-0.006447821389883757,-0.06040025129914284,-0.004154594615101814,0.07584580779075623,0.05874539166688919,0.03986299782991409,-0.01615162566304207,-0.07740232348442078,-0.07213286310434341,0.011918359436094761,-0.06114191189408302,-0.056093838065862656,-0.010696287266910076,-0.009771116077899933,0.031727779656648636,0.027675868943333626,0.004871476907283068,0.004809229169040918,-0.032161302864551544,-0.0028696341905742884,0.026516471058130264,0.019166698679327965,-0.028205694630742073,-0.05328194051980972,-0.07289554923772812,0.04206705093383789,0.04293974116444588,-0.02375532127916813,0.03702956438064575,-0.06891143321990967,0.007658111397176981,0.0017189207719638944,0.07477626949548721,0.008195855654776096,-0.03590075299143791,0.051487285643815994,0.06545574218034744,-0.0045664007775485516,-0.06632187217473984,-0.05185909569263458,0.03809089586138725,0.02081872709095478,-0.005032777786254883,-0.05827959254384041,0.0699564665555954,0.06945742666721344,0.06513480097055435,-0.032812125980854034,-0.035616181790828705,-0.03767986595630646,-0.07162601500749588,-0.03442073240876198,0.04548472538590431,-0.0009119698661379516,0.00889004860073328,0.005668756552040577,-0.007921037264168262,0.07537752389907837,0.0716383084654808,-0.014815323054790497,0.009714081883430481,0.02141980454325676,-0.007959910668432713,-0.07424800843000412,-0.006094328593462706,-0.015092186629772186,-0.031123323366045952,0.0017796187894418836,-0.038853466510772705,0.00818577315658331,-0.03915557265281677,0.033566880971193314,0.07681736350059509,-0.0469045490026474,0.05486550182104111,0.03564603626728058,0.036222826689481735,0.026995325461030006,-0.07585437595844269,0.07285116612911224,-0.02849365584552288,0.006775359157472849,-0.03887030482292175,-0.0707610622048378,-0.05328924208879471,0.005109474062919617,-0.04485583305358887,-0.0721408799290657,0.032524771988391876,-0.034377992153167725,-0.023692850023508072,-0.0734151229262352,-0.053214725106954575,-0.03600435331463814,-0.05071152374148369,-0.027939660474658012,-0.046920403838157654,-0.06062087416648865,-0.05347122251987457,0.015623346902430058,0.02739897184073925,0.06286809593439102,0.015787597745656967,-0.06842180341482162,0.007056861650198698,-0.045389048755168915,-0.04383532330393791,0.022128280252218246,0.037160199135541916,0.024932105094194412,0.05471740663051605,0.04915529862046242,0.0678795874118805,0.05861413851380348,0.05958915501832962,-0.017194051295518875,0.02852453477680683,0.015801304951310158,-0.039878182113170624,0.03962094709277153,-0.02183954045176506,0.055051013827323914,0.07405059039592743,0.012889119796454906,0.009241033345460892,-0.050380054861307144,-0.04633759707212448,0.031189201399683952,0.009181774221360683,-0.02403726615011692,0.0622592493891716,0.0603661946952343,0.023808011785149574,-0.04855337738990784,0.0042772782035171986,-0.00905780028551817,-0.04776075482368469,0.057883121073246,-0.022159133106470108,-0.04284330829977989,-0.0031249180901795626,-0.04222362861037254,-0.005921022966504097,-0.007263475097715855,-0.019064242020249367,-0.05425190180540085,-0.032815203070640564,0.03832922503352165,0.04347240924835205,-0.07264523953199387,0.05371996760368347,-0.0021603091154247522,0.02499258704483509,-0.03909849002957344,-0.0778113529086113,0.03964591398835182,0.047057148069143295,0.0010618194937705994,-0.012770785950124264,-0.07527206838130951,0.025679856538772583,0.04322493448853493,-12.434991836547852,-12.394233703613281,-0.07407970726490021,-0.0734158307313919,0.02204662747681141,0.06100793927907944,3.8869307041168213,-0.03920969367027283,12.3986177444458,0.05283485725522041,-0.036935318261384964,12.406200408935547,-0.04409199580550194,-0.07625744491815567,-0.035427551716566086,0.05277691036462784,-0.03314567357301712,0.017548037692904472,0.023508010432124138,-0.06739290803670883,-0.06863267719745636,0.0262107253074646,-0.03115363046526909,0.01419652346521616,-0.02510567009449005,0.022378766909241676,0.05409281700849533,-0.0023428075946867466,-0.028731849044561386,-0.0755401998758316,0.07387258112430573,0.034848906099796295,-0.02075890637934208,-0.05689886212348938,0.06831462681293488,0.009957564994692802,0.05251600593328476,0.004852909129112959,0.06427708268165588,0.06231585890054703,-0.05118481442332268,0.02676738053560257,-0.06525258719921112,0.0391690768301487,-0.06175287067890167,-0.04304058849811554,-0.07164742797613144,0.06490273028612137,0.04473555460572243,0.06297248601913452,0.06996175646781921,-0.056705862283706665,-0.02767760120332241,-0.04365646466612816,0.017078600823879242,0.03162052109837532,-0.0582830049097538,0.017818257212638855,-0.06610679626464844,0.02511071227490902,0.07416849583387375,-0.045856647193431854,-0.04222741350531578,0.038304105401039124,-0.011473043821752071,0.06937076151371002,-0.07566194981336594,0.03264480456709862,0.05467093735933304,0.014501171186566353,-0.06504657864570618,0.010579321533441544,0.07788082957267761,0.07048957794904709,0.07722020894289017,0.019286228343844414,-0.017217114567756653,-0.01570649817585945,-0.06580447405576706,0.03207692131400108,14.114593505859375,-0.29219990968704224,0.03007546067237854,-3.694136381149292,0.03692847117781639,-0.031189454719424248,1.5929231643676758,0.03060131147503853,-11.826190948486328,0.01345875021070242,-1.3579500913619995,-0.34457993507385254,-0.07521279901266098,0.07163479924201965,-0.041676491498947144,-0.009574788622558117,0.024043641984462738,-0.05134310573339462,-0.0715334415435791,0.008324977941811085,-0.026547741144895554,0.00517580471932888,0.038141075521707535,-0.0011087610619142652,0.07735680043697357,0.02242150530219078,-0.07745601236820221,0.005791482049971819,-0.0339558981359005,-0.024978628382086754,-0.012305187992751598,-0.024868130683898926,-0.03308023884892464,-0.07595521956682205,0.030964313074946404,-0.02916683442890644,-0.001791397575289011,-0.04569035395979881,-0.07254215329885483,0.0467437319457531,0.035102471709251404,0.03660310059785843,-0.058440472930669785,-0.07658222317695618,-0.003202680265530944,-0.002799802925437689,-0.06669262051582336,-0.05026232451200485,0.034341540187597275,-0.07105471193790436,-0.004184741992503405,0.06094769388437271,0.029432129114866257,-0.07492341101169586,-0.02600262314081192,-0.047304123640060425,0.07547067105770111,-0.07305987179279327,-0.022963009774684906,-0.03148229047656059,0.010558104142546654,0.011281425133347511,-0.02012188546359539,-0.05512314289808273,-0.010595404542982578,-0.012914466671645641,-0.05668018385767937,-0.03862389922142029,-0.05988896265625954,-0.0054747480899095535,-0.014715651050209999,-0.04558229073882103,0.017587345093488693,-0.03505118936300278]},"inputBias":{"rows":20,"columns":1,"weights":[-7.33567275961722e-29,8.699935845520035e-13,-4.130457087470063e-10,2.788657720185567e-16,-3.516597549182293e-14,-3.466468431745362e-11,0,0,0,0,-0.000005411309302871814,4.488095807295547e-21,12.258573532104492,-2.5634150670953442e-27,0.00002000663516810164,0,-4.095137119293213,0,-4.348755577865404e-9,0]},"forgetMatrix":{"rows":20,"columns":1,"weights":[-0.033451903611421585,-0.011074407026171684,-0.03565668314695358,0.05058089271187782,0.0356469489634037,0.03108225390315056,0.035201214253902435,0.042662572115659714,-0.036944106221199036,3.550053358078003,0.047195274382829666,0.013860142789781094,0.07545361667871475,-0.04832980036735535,0.33011361956596375,0.03092687763273716,0.061293646693229675,0.001810867921449244,0.00920102372765541,0.021601425483822823]},"forgetHidden":{"rows":20,"columns":20,"weights":[-0.06635826826095581,0.024462079629302025,-0.01819581910967827,0.06979817152023315,0.054131634533405304,0.043051376938819885,-0.06861197203397751,-0.043287646025419235,-0.017356842756271362,-0.009613177739083767,-0.03227894753217697,0.02571624331176281,0.026917044073343277,0.017659593373537064,-0.06731266528367996,-0.036577675491571426,-0.035631608217954636,0.0513506755232811,-0.06070210412144661,0.06020653247833252,-0.011714918538928032,-0.061844803392887115,0.053168244659900665,0.046466607600450516,0.016722649335861206,-0.026039719581604004,0.04239426180720329,0.07037416845560074,-0.004155714996159077,-0.07382773607969284,-0.0340430922806263,0.04441199451684952,0.07739929109811783,-0.023148495703935623,0.009919624775648117,0.058241330087184906,-0.028776656836271286,-0.001367286778986454,0.035230446606874466,0.0027435601223260164,0.05544351786375046,0.019795963540673256,0.07543464004993439,-0.04099248722195625,-0.06567557901144028,0.03262726590037346,0.06784213334321976,0.06721876561641693,-0.05525587126612663,0.057284366339445114,0.07597494125366211,-0.00547205563634634,0.060978591442108154,0.012822935357689857,0.019558878615498543,0.06262630969285965,0.04821387305855751,0.07069232314825058,0.07132241874933243,-0.05164339765906334,-0.05658087134361267,-0.009712893515825272,-0.03387278690934181,-0.059915006160736084,0.05513356626033783,-0.01744202710688114,-0.022716190665960312,0.020548518747091293,-0.028076810762286186,0.019567051902413368,0.05618021637201309,-0.07223180681467056,-0.04704577103257179,0.04523370787501335,-0.04763048142194748,0.03884030133485794,-0.067435622215271,0.013773838058114052,0.034130170941352844,0.042033638805150986,-0.07056806236505508,0.028236418962478638,-0.06190251186490059,0.06696204841136932,0.031177643686532974,-0.06187212094664574,0.032592445611953735,-0.012545007281005383,-0.009977190755307674,-0.04639429226517677,-0.017470167949795723,-0.015455596148967743,0.051745954900979996,-0.05821553245186806,-0.008816282264888287,-0.013857466168701649,-0.05820441618561745,0.008278402499854565,0.05756543204188347,0.031136637553572655,-0.006465453188866377,-0.052189379930496216,0.0559053011238575,0.07274913787841797,-0.05187815800309181,0.035967614501714706,-0.06990668177604675,0.07819366455078125,-0.06417907029390335,0.024518674239516258,-0.020744338631629944,-0.04904266074299812,0.007322911638766527,-0.005852842703461647,-0.036446262151002884,-0.0707639828324318,-0.02214333415031433,-0.019864264875650406,-0.07724457234144211,0.04109574854373932,0.07382078468799591,-0.06764195114374161,-0.077459417283535,0.04796839877963066,0.06688927859067917,-0.01689593493938446,0.034319229423999786,0.028909102082252502,-0.007344266399741173,-0.040016163140535355,0.03505666181445122,0.07510106265544891,0.04072032496333122,0.020961269736289978,-0.04773688316345215,-0.020117513835430145,-0.051754292100667953,0.02689150720834732,0.03165873885154724,0.06717945635318756,0.05573602393269539,-0.024261225014925003,0.04104916751384735,0.023464785888791084,0.07823086529970169,0.0033862448763102293,0.017541032284498215,-0.03682827204465866,0.06025823950767517,0.06830140948295593,-0.00733095221221447,-0.048052333295345306,0.017627907916903496,0.002713326830416918,0.020549189299345016,-0.017335902899503708,0.006789895240217447,0.06113499402999878,-0.06668466329574585,-0.06234104931354523,-0.0181508120149374,0.002535351552069187,-0.013049517758190632,-0.002352180890738964,-0.03509090468287468,0.061583567410707474,0.002029568888247013,0.07521941512823105,0.01634984463453293,0.013427373953163624,-0.05796226114034653,0.03301453962922096,0.02135215699672699,0.04279705882072449,0.0500812828540802,0.051180120557546616,-0.03308901563286781,0.027298476547002792,0.07816445827484131,0.013328107073903084,0.07654955983161926,-0.012391429394483566,0.06316083669662476,0.05303718149662018,-0.01613316684961319,-0.023627175018191338,-0.08056621998548508,-0.027916237711906433,0.006502778735011816,-0.05453868582844734,0.05702856183052063,-0.029760919511318207,-0.047859061509370804,-0.043820030987262726,-0.011762816458940506,-0.005236449185758829,-0.07734375447034836,-0.032217662781476974,-0.02336050756275654,-0.04401441290974617,0.007245102897286415,0.012963471934199333,-0.056731216609478,0.03336163982748985,-0.049306564033031464,0.04535994306206703,0.016651904210448265,-0.04140912741422653,0.024530818685889244,-0.00039828941226005554,0.05976828187704086,0.07704537361860275,0.03222057968378067,-0.011642771773040295,0.01671207696199417,-0.042749419808387756,-0.015015969052910805,0.026021352037787437,0.07134602218866348,0.04371672868728638,-0.055551283061504364,-0.06954076886177063,0.03272602707147598,-0.009127875789999962,-0.0002571412769611925,-0.008150223642587662,0.06248996779322624,0.07668802887201309,0.05414323881268501,-0.03889158368110657,-0.05024351179599762,0.010831437073647976,0.04454251378774643,0.007333456538617611,-0.00015506581985391676,0.019065039232373238,-0.03933829069137573,0.06779780983924866,0.0006611474673263729,-0.0058235786855220795,-0.0008388564456254244,-0.07039602845907211,0.07426236569881439,0.046287767589092255,-0.05598112568259239,-0.0037930209655314684,0.016990521922707558,0.02483176440000534,-0.018872344866394997,0.061043158173561096,0.024660540744662285,0.00877718161791563,-0.022119827568531036,-0.05291716754436493,0.037019774317741394,0.011220308020710945,-0.0003894138499163091,0.005566425621509552,-0.049737393856048584,0.033847708255052567,0.07585030049085617,0.004384890198707581,-0.02939128503203392,0.04574121534824371,-0.0687691792845726,-0.013179825618863106,-0.0739264190196991,-0.056762900203466415,-0.04514476656913757,0.04191984236240387,-0.0776863545179367,0.03719785809516907,0.06088407710194588,-0.014777828007936478,0.06095103919506073,-0.05485045537352562,0.046841636300086975,0.05065488442778587,0.021931003779172897,0.04021900147199631,0.06781164556741714,-0.01341608352959156,0.019871439784765244,0.004870015196502209,-0.001903609256260097,-0.03575166314840317,0.0073976172134280205,0.026911741122603416,-0.0724296122789383,-0.05295263230800629,-0.03675661236047745,0.058310940861701965,0.01577252894639969,0.05843905732035637,0.05722546949982643,-0.003475521458312869,0.027607614174485207,-0.051499757915735245,0.003093730891123414,-0.07610613852739334,0.07394425570964813,-0.020107688382267952,-0.0241731908172369,-0.01079606730490923,0.06269937008619308,0.077363520860672,0.030281290411949158,0.05273710563778877,-0.06331455707550049,0.05580078810453415,-0.032502997666597366,-0.027471892535686493,0.05720355361700058,0.0380358062684536,-0.025747910141944885,-0.0029698677826672792,-0.06876780092716217,0.032400522381067276,-0.05451537296175957,-0.01656106859445572,-0.016738180071115494,0.0665774792432785,-0.05008845031261444,0.053160473704338074,0.03395872190594673,-0.04852978512644768,-0.042966198176145554,-0.03918876498937607,-0.06873568892478943,-0.0776791200041771,0.04430245980620384,0.04461526870727539,-0.013696463778614998,-0.05628478527069092,-0.03339852765202522,0.06498605757951736,-0.06484874337911606,-0.062118325382471085,-0.014070151373744011,0.012539280578494072,0.0503462553024292,0.07389077544212341,0.052057866007089615,-0.047890521585941315,0.06541543453931808,-0.03284429758787155,2.1851208209991455,-0.295460045337677,0.043021444231271744,-2.9570086002349854,0.0683126300573349,0.0732843354344368,28.997812271118164,0.022256098687648773,-1.035207986831665,-0.06743152439594269,-2.987056255340576,-1.0964421033859253,0.029343321919441223,-0.05502963811159134,-0.0060435933992266655,0.02458004653453827,-0.02756728231906891,-0.03233076259493828,-0.018466992303729057,0.03152526542544365,0.04552636668086052,-0.024357454851269722,0.04109460115432739,0.012846741825342178,0.07227370142936707,0.024699578061699867,-0.021732717752456665,-0.05312768369913101,-0.05979970097541809,0.05687528848648071,-0.0021114579867571592,-0.07641477882862091,-0.047721050679683685,-0.021124837920069695,-0.0526023730635643,-0.06549503654241562,-0.011430833488702774,-0.0008615769911557436,-0.04899386689066887,-0.07722792774438858,-0.013238292187452316,-0.07064531743526459,-0.07697499543428421,0.0120909558609128,-0.061223987489938736,-0.015275197103619576,-0.047434572130441666,0.05544028803706169,0.02568373642861843,-0.07035801559686661,-0.068635955452919,-0.023743784055113792,0.04155513271689415,-0.008081074804067612]},"forgetBias":{"rows":20,"columns":1,"weights":[0,0,0,0,0,0,0,0,0,0,0,0,0,0,0,0,0,0,0,0]},"outputMatrix":{"rows":20,"columns":1,"weights":[-0.05691991001367569,0.04838015139102936,0.025935355573892593,0.035530343651771545,0.015157180838286877,0.026202883571386337,12.038860321044922,0.047051042318344116,-0.07307133078575134,0.028150411322712898,0.06328250467777252,-0.07619265466928482,7.610780239105225,-0.03766791895031929,12.382828712463379,-0.064886175096035,0.04237046092748642,0.04547395929694176,0.038950104266405106,-0.06958164274692535]},"outputHidden":{"rows":20,"columns":20,"weights":[0.05627644807100296,-0.025916991755366325,0.07402480393648148,-0.063834547996521,-0.05446745827794075,-0.00587907899171114,-0.02038346417248249,0.01246290747076273,0.07526733726263046,0.01840028166770935,0.019974658265709877,-0.02599450759589672,-0.05066794529557228,-0.07323724031448364,-0.007814321666955948,-0.06071752682328224,-0.0007628913153894246,0.050808683037757874,0.026609225198626518,0.05171135440468788,0.06805313378572464,0.02131001092493534,-0.05298851430416107,-0.07013432681560516,0.03820781782269478,0.02612282522022724,-0.06470805406570435,0.06422429531812668,-0.06143766641616821,-0.018275436013936996,0.02908717840909958,0.06550698727369308,-0.04921169951558113,0.0228070430457592,0.051984477788209915,0.002744941972196102,0.06805270165205002,0.04121416062116623,-0.020336154848337173,0.060470640659332275,0.0594341903924942,-0.026843367144465446,0.014771674759685993,0.06165418028831482,0.02066037245094776,-0.04673967882990837,-0.06520599126815796,0.0752909854054451,-0.06362394988536835,-0.06646733731031418,0.015600359998643398,-0.008273600600659847,0.05711653456091881,-0.049346957355737686,0.03384500369429588,-0.04217047244310379,-0.0587925985455513,-0.07393428683280945,-0.06647757440805435,-0.035928595811128616,0.013582788407802582,0.06942376494407654,0.07007025927305222,-0.003129162359982729,-0.05699508264660835,-0.043721117079257965,-0.005874117370694876,-0.022810371592640877,-0.016895916312932968,0.03272921219468117,-0.06752000004053116,-0.019896404817700386,-0.005683582276105881,0.043899573385715485,0.06239151209592819,-0.007698691915720701,-0.02678740955889225,0.04016464576125145,-0.010681480169296265,0.03782883659005165,-0.003516544820740819,0.0061658769845962524,-0.024620622396469116,0.07400402426719666,0.07152048498392105,-0.04522737115621567,-0.028297625482082367,-0.004066626541316509,-0.008038188330829144,0.02471422217786312,-0.06465062499046326,0.0042581879533827305,-0.03035077266395092,0.06502430886030197,-0.06013330817222595,-0.05835958942770958,-0.045594654977321625,-0.026209965348243713,-0.026422616094350815,-0.0021686023101210594,0.021998398005962372,-0.022546881809830666,0.076510488986969,-0.07299792021512985,-0.03846847265958786,-0.007898603565990925,0.07114125788211823,0.002470368752256036,-0.008734356611967087,-0.00004374853597255424,0.015345217660069466,0.01980508677661419,0.05374002829194069,-0.0611443966627121,0.044005222618579865,-0.01380735170096159,-0.06879312545061111,-0.007484367582947016,0.025250950828194618,0.059652846306562424,-0.04694359377026558,-0.0077772499062120914,-0.06230732426047325,0.014259153977036476,-0.07527316361665726,-0.03890466317534447,0.03153320029377937,0.14942939579486847,0.028806429356336594,-0.012301971204578876,0.04005469009280205,0.033996693789958954,-0.0023999090772122145,0.007978595793247223,-0.013814652338624,0.035036034882068634,-0.006350998766720295,0.09487948566675186,0.0386432409286499,0.023583412170410156,0.055306337773799896,0.04124326631426811,0.04832787811756134,-0.001571914181113243,0.07403790205717087,0.0005970700876787305,0.030447686091065407,-0.03271610662341118,-0.009396110661327839,0.05756862089037895,-0.04947235435247421,-0.017418887466192245,-0.05747704580426216,-0.027621937915682793,0.05851323530077934,0.04978293180465698,-0.0656888484954834,0.004445103462785482,0.07667431980371475,0.03934719040989876,0.0469733364880085,0.0031474221032112837,0.031572744250297546,0.06821757555007935,-0.018842650577425957,0.01039804331958294,-0.06448163092136383,0.016485709697008133,0.0606992281973362,-0.035305410623550415,-0.04209693521261215,0.03393218293786049,-0.02022012323141098,-0.054324615746736526,0.018936017528176308,0.04802858829498291,0.04608000069856644,0.05768461525440216,0.013223431073129177,-0.020489417016506195,0.06558196246623993,0.06303571909666061,-0.022393325343728065,-0.06484853476285934,0.046347301453351974,0.06164209917187691,-12.361064910888672,-17.88825035095215,-0.06448383629322052,-10.705301284790039,0.004629293456673622,-0.0498918853700161,12.33614730834961,0.07426736503839493,12.406719207763672,0.013367575593292713,-12.38437557220459,-18.698631286621094,-0.042216747999191284,0.016661876812577248,0.05366738885641098,0.06290227174758911,0.0072309537790715694,-0.06583353132009506,-0.07115177810192108,0.014818869531154633,0.05415887013077736,-0.027820684015750885,0.065226249396801,0.0587434284389019,0.04331205412745476,0.008063402958214283,-0.033762507140636444,0.04058731719851494,0.046486154198646545,0.04584846273064613,-0.017766939476132393,-0.07647310942411423,0.07788596302270889,0.05621800199151039,0.0360775962471962,0.036655109375715256,0.02336481213569641,-0.033209867775440216,0.07808095216751099,-0.04224665090441704,0.04193985462188721,-0.05792589485645294,-0.04516128823161125,0.061398424208164215,-0.03616657108068466,0.004404705949127674,0.03741436079144478,-0.008680484257638454,0.030225513502955437,-0.0289352685213089,-0.04654847830533981,0.001240045647136867,-0.00701143266633153,0.06673165410757065,-0.07132931798696518,0.03631950169801712,-0.008892814628779888,-0.07343212515115738,0.004165562801063061,0.03371664136648178,-11.8728666305542,-11.904974937438965,0.025237085297703743,-0.060015857219696045,0.03489617630839348,-0.07563801854848862,0.15722770988941193,-0.07539582997560501,11.870648384094238,0.06048920378088951,0.015383623540401459,11.697797775268555,0.05953061953186989,0.019193485379219055,-0.004836353473365307,0.019402315840125084,-0.05536539852619171,0.04451586678624153,0.017575887963175774,-0.07593467086553574,-0.05870319902896881,-0.017020083963871002,-0.027532044798135757,-0.04721032455563545,0.0557979978621006,-0.07551256567239761,0.03934077173471451,-0.0332864411175251,0.027058815583586693,0.011373705230653286,0.06879036873579025,-0.05627395585179329,-0.0369100347161293,-0.07224612683057785,-0.03964204341173172,-0.028562180697917938,0.03568914905190468,0.03142619505524635,0.048574648797512054,0.07739181816577911,0.03263566270470619,9.741660118103027,0.005797151476144791,0.9008146524429321,0.036374300718307495,-0.04709761589765549,0.07135925441980362,0.0732375755906105,0.04289811849594116,0.024871354922652245,3.2315850257873535,9.42011547088623,0.019010772928595543,0.07665734738111496,-0.07640057802200317,0.06736645847558975,-0.022569118067622185,0.003820213722065091,-0.06022190675139427,-0.005549024324864149,-0.06684917211532593,-0.031361181288957596,0.04067758470773697,-0.02321075275540352,-0.06536439806222916,-0.07677063345909119,0.051637616008520126,-0.06276942789554596,-0.04321306198835373,-0.03725479170680046,0.01480958703905344,-0.016232263296842575,-0.043876536190509796,-0.07765725255012512,0.07012175023555756,-0.02110455185174942,0.005172730423510075,-0.07177726924419403,0.027977358549833298,0.060460131615400314,0.0012200394412502646,-0.01752769574522972,0.042609792202711105,0.015278009697794914,0.00763758085668087,0.03762565925717354,0.024237841367721558,0.07415315508842468,0.06280875205993652,-0.07409153133630753,-0.021354064345359802,0.01801108382642269,-0.0020446395501494408,-0.025066277012228966,0.03680836036801338,-0.04363411292433739,-0.05408313125371933,-0.06904727220535278,-0.007323096040636301,-0.017663976177573204,0.037649597972631454,0.023283516988158226,0.06777344644069672,-0.00013908759865444154,-0.021965784952044487,0.02621081843972206,0.057290177792310715,-0.05910971760749817,0.0736331045627594,0.028209596872329712,-0.050595615059137344,-0.07488030195236206,0.00835307314991951,0.04504375904798508,0.017183221876621246,-0.05190242826938629,-0.04598565027117729,0.0651523694396019,-0.020391257479786873,0.04536477103829384,-0.017024783417582512,0.027826331555843353,-0.05322936549782753,-0.007072731852531433,-0.06356245279312134,-0.003689549630507827,-0.04659796506166458,-0.04228370264172554,-0.009779898449778557,0.01746385358273983,0.03209901973605156,0.018971089273691177,-0.013703313656151295,-0.07528328150510788,-0.06947379559278488,0.0449942909181118,0.07612833380699158,-0.06848442554473877,-0.04917909577488899,0.044617824256420135,0.05662010982632637,0.06502285599708557,0.020415538921952248,-0.03890180215239525,0.06332432478666306,-0.014134764671325684,0.005095099098980427,-0.0488767996430397,0.003784025087952614,0.004170849919319153,-0.03286023065447807,0.02922646328806877,0.04166203364729881,0.02984815277159214]},"outputBias":{"rows":20,"columns":1,"weights":[-7.33567275961722e-29,0,0,0,-1.711605225422022e-19,0,0.0006007486954331398,0,-2.154040188197903e-17,2.868553638458252,0,4.492919546580567e-21,0.023807860910892487,-2.5634150670953442e-27,0.06620613485574722,3.092043629601346e-14,0,0,0,1.128309295631404e-15]},"cellActivationMatrix":{"rows":20,"columns":1,"weights":[-0.03822313994169235,-0.008898675441741943,-0.033751875162124634,0.023549174889922142,0.03438964858651161,0.006681982893496752,-0.04876153543591499,-12.387540817260742,-0.07343298196792603,0.06179768592119217,0.01413419283926487,0.03657945990562439,0.020182155072689056,-0.028241917490959167,0.03590381145477295,-0.040132779628038406,0.03702640160918236,-2.6779587268829346,0.07076442986726761,0.07017619907855988]},"cellActivationHidden":{"rows":20,"columns":20,"weights":[-0.009823975153267384,0.013152525760233402,-0.04257115721702576,0.027836324647068977,0.05898306891322136,-0.044920913875103,-0.012621219269931316,0.0634557232260704,0.06614967435598373,-0.060183849185705185,-0.019320975989103317,0.04846169427037239,-0.06472892314195633,-0.019776785746216774,-0.0028115103486925364,-0.05152808129787445,0.011828126385807991,0.056871723383665085,0.01449910830706358,0.04150906950235367,0.06009921431541443,0.06794361770153046,0.06534220278263092,-0.06768990308046341,0.015467016957700253,-0.056790415197610855,-0.04517018049955368,0.05703352019190788,0.03315485268831253,-0.05348759517073631,0.05122626945376396,0.0007230189512483776,0.030818337574601173,-0.07741174846887589,0.00491291331127286,-0.05593785271048546,-0.04743681102991104,0.04790873825550079,0.07783681154251099,-0.03180443122982979,0.016930237412452698,0.032016508281230927,-0.009004059247672558,-0.01704094372689724,0.07052977383136749,0.07717661559581757,0.01729697175323963,-0.008697104640305042,0.06958996504545212,0.031027263030409813,0.017491748556494713,0.01142403855919838,-0.005362113006412983,-0.02212127298116684,0.00622117705643177,-0.06108502298593521,-0.02001332864165306,0.007085129152983427,0.0180393997579813,-0.04461478814482689,-0.06383638083934784,-0.04371635243296623,0.031311217695474625,0.06807105243206024,0.01191894244402647,0.030004115775227547,-0.057758502662181854,-0.02268109656870365,0.05763007327914238,-0.04638896882534027,-0.07464128732681274,-0.025706956163048744,0.04779677093029022,-0.029209408909082413,-0.06558544188737869,-0.043367013335227966,-0.045371148735284805,-0.058513350784778595,0.07004213333129883,0.03765159472823143,0.04749395698308945,-0.07068156450986862,-0.011268798261880875,0.015642574056982994,-0.005776927340775728,-0.010990099981427193,0.05058193579316139,0.002402965910732746,-0.035508908331394196,-0.06877627968788147,-0.029308736324310303,0.02219386026263237,-0.005109050776809454,0.03243797644972801,0.07524777203798294,0.009599495679140091,-0.055943600833415985,-0.020512288436293602,0.03630362078547478,-0.04174450784921646,0.061951134353876114,0.04658473655581474,0.016099711880087852,0.06572537124156952,-0.016817832365632057,-0.014938108623027802,0.06626784056425095,-0.015715135261416435,0.07089324295520782,0.0719931498169899,0.07105802744626999,-0.021778395399451256,0.015536976978182793,-0.041781239211559296,-0.06276951730251312,-0.07294204086065292,0.0356668122112751,0.056841470301151276,0.06368717551231384,0.053864091634750366,-0.04096897691488266,-0.02018035762012005,0.024363044649362564,-0.0754087045788765,0.06992508471012115,-0.038994766771793365,-0.07494091242551804,0.06301610171794891,0.02023482881486416,-0.002122793346643448,0.028857633471488953,0.018183842301368713,-0.0019114011665806174,0.009115273132920265,-0.04827161878347397,-0.058873146772384644,-0.061900436878204346,-0.07564834505319595,-0.07726734131574631,0.03713781759142876,0.06668142229318619,-0.03843765705823898,-0.011685770936310291,0.02353587932884693,0.020084857940673828,-0.0041601937264204025,-0.049927107989788055,-0.7058715224266052,0.01652047410607338,-0.018848903477191925,0.0648118108510971,-0.02378121018409729,0.0020678318105638027,-0.045340731739997864,-0.07650817185640335,0.03666723519563675,-0.18205033242702484,-0.5564468502998352,0.017721882089972496,0.01022426038980484,0.06776417791843414,-0.025366326794028282,0.04785942658782005,0.035542022436857224,-0.039667870849370956,0.002717043273150921,-0.0036805151030421257,-0.04540611803531647,-0.07797836512327194,-0.019878430292010307,0.05931062251329422,0.05865982919931412,-0.024120425805449486,0.06307870894670486,0.0705888643860817,-0.04595891013741493,0.03168585151433945,-0.06086732819676399,0.030347254127264023,-0.029095878824591637,-0.005777471233159304,0.05980542674660683,0.04489004984498024,-0.07712329924106598,-0.0766155868768692,-0.010783515870571136,0.007991100661456585,-0.05088666453957558,0.009544516913592815,-0.024087170138955116,-0.023796172812581062,0.0728871300816536,0.04896210879087448,0.021128613501787186,-0.011256051249802113,0.05691291391849518,-0.03481750190258026,-0.0539725087583065,-0.0053444537334144115,-0.023433158174157143,-0.03083365596830845,-0.0002498420944903046,-0.035264089703559875,0.0537930428981781,-0.005310170818120241,-0.06214803457260132,0.03461325913667679,-0.030286146327853203,-0.023942846804857254,-0.03906003758311272,0.01045786589384079,-0.03183479607105255,-0.010084554553031921,0.05784843489527702,-0.017415672540664673,-0.018899019807577133,-0.03696734085679054,-0.05028191953897476,-0.024480747058987617,0.035471923649311066,-0.06090957671403885,-0.0694727748632431,-0.02734437771141529,0.05759121850132942,0.010284936986863613,0.049401067197322845,-0.011249848641455173,-0.04071813076734543,0.06136345863342285,0.014868531376123428,-0.06010029837489128,-0.05509166046977043,-0.04035251960158348,-0.019675757735967636,0.02544384077191353,0.00006318659870885313,-0.025904936715960503,0.07041093707084656,0.043500468134880066,-0.03879553824663162,0.013847477734088898,0.05851703882217407,-0.05004198104143143,-0.017450576648116112,-0.00014828141138423234,-0.06554099172353745,0.06518779695034027,-0.07701009511947632,-0.02349517121911049,0.05206463113427162,-0.06825845688581467,0.035781823098659515,0.004112293943762779,-0.05601250007748604,-0.018448181450366974,0.05971211567521095,-0.047351714223623276,-0.06090843677520752,-0.0043005202896893024,0.07592622190713882,0.007728611119091511,-0.009569860994815826,0.012323114089667797,0.06798519939184189,0.06027541682124138,0.0409768670797348,0.02678964100778103,0.07244429737329483,-0.0011586982291191816,0.06416226923465729,0.04167502745985985,-0.007147639524191618,0.025517279282212257,-0.017774753272533417,0.002734024543315172,0.041948724538087845,0.04284262657165527,-0.07522966712713242,-0.04624652862548828,-0.045563068240880966,-0.06442420184612274,0.047798532992601395,-0.026313433423638344,0.06401780992746353,-0.009580699726939201,-0.015251005999743938,-0.059343889355659485,0.009109942242503166,-0.061992742121219635,-0.03884574770927429,-0.07281596213579178,-0.07789313793182373,-0.07669980823993683,0.005248879548162222,-0.022827696055173874,0.0330619253218174,-0.06152143329381943,-0.023945873603224754,-0.02267163060605526,-0.006644429638981819,-0.05473839119076729,-0.04412081837654114,-0.02525321952998638,0.07013782858848572,-0.010394115932285786,-0.05620947852730751,-0.01956828124821186,-0.03016507811844349,0.0674600675702095,-0.06794396787881851,0.054121557623147964,0.022956091910600662,0.008428952656686306,-0.014144636690616608,-0.0006493950495496392,-0.0196825098246336,-0.04234990477561951,0.041303977370262146,0.05973757058382034,0.017536649480462074,-0.03505631908774376,0.017474761232733727,0.03782358020544052,-0.0145945493131876,-0.03410553187131882,-0.0054124887101352215,-0.06691756099462509,0.06773559749126434,0.0728483572602272,0.018819261342287064,0.023482592776417732,0.0026164092123508453,0.001380763715133071,-0.006841608788818121,-0.049906764179468155,-0.045672185719013214,-0.059317588806152344,-0.06185939908027649,0.05495636165142059,0.06097083538770676,-0.061712317168712616,-0.04370638355612755,-0.044420793652534485,-0.05881766974925995,0.05102290213108063,-0.05675863102078438,-0.013038601726293564,0.06504882127046585,-0.041795071214437485,0.011342993937432766,-0.02307339571416378,-0.00897774938493967,-0.013511723838746548,0.045953311026096344,-0.045523177832365036,-0.021240314468741417,0.030751945450901985,-0.040860630571842194,-0.06518508493900299,0.030233759433031082,-0.06506965309381485,0.01990083046257496,-0.025541866198182106,-0.026924772188067436,-0.016547325998544693,0.04701806604862213,0.052358854562044144,-0.01032206229865551,0.044921405613422394,-0.038396093994379044,-0.05692229047417641,-0.07343100756406784,0.0760912299156189,0.008654545061290264,0.030204443261027336,0.0030072194058448076,0.05304637923836708,0.058411724865436554,-0.02325524389743805,-0.0492914579808712,-0.0009200170752592385,0.024641597643494606,0.06443532556295395,0.07764450460672379,-0.07207818329334259,0.06452634185552597,0.01994369365274906,0.04244105890393257,0.021506009623408318,-0.07760806381702423,0.06545530259609222,0.01013252791017294,-0.0121205635368824,-0.01589277759194374,0.02501506358385086,-0.02288353629410267,0.007458705920726061,-0.04122988507151604,-0.016444627195596695,0.04632575064897537]},"cellActivationBias":{"rows":20,"columns":1,"weights":[0,-1.990357233636573e-18,0,0,0,-2.825595185888992e-15,0,-0.014675303362309933,0,0,0,0,0,0,0,0,0,0,0,0]}}],"outputConnector":{"rows":1,"columns":20,"weights":[0.04592224583029747,-0.06004951149225235,0.02691652998328209,0.010840518400073051,-0.07340104877948761,-0.026680512353777885,-12.995118141174316,-0.6171182990074158,0.020732728764414787,0.6425835490226746,-0.03555043414235115,0.03744610399007797,1.4789295196533203,0.06296896189451218,13.04684829711914,-0.04032598435878754,0.2686246335506439,-0.6302030086517334,-0.016752857714891434,0.06321730464696884]},"output":{"rows":1,"columns":1,"weights":[55.249324798583984]},"inputLookup":null,"inputLookupLength":0,"outputLookup":null,"outputLookupLength":0}